{"learner":{"attributes":{"scikit_learn":"{\"use_label_encoder\": true, \"n_estimators\": 100, \"objective\": \"binary:logistic\", \"max_depth\": 2, \"learning_rate\": null, \"verbosity\": null, \"booster\": null, \"tree_method\": null, \"gamma\": null, \"min_child_weight\": null, \"max_delta_step\": null, \"subsample\": null, \"colsample_bytree\": null, \"colsample_bylevel\": null, \"colsample_bynode\": null, \"reg_alpha\": null, \"reg_lambda\": null, \"scale_pos_weight\": null, \"base_score\": null, \"missing\": NaN, \"num_parallel_tree\": null, \"kwargs\": {\"nestimators\": 100}, \"random_state\": null, \"n_jobs\": null, \"monotone_constraints\": null, \"interaction_constraints\": null, \"importance_type\": \"gain\", \"gpu_id\": null, \"validate_parameters\": null, \"classes_\": [false, true], \"n_classes_\": 2, \"_le\": {\"classes_\": [false, true]}, \"_features_count\": 12, \"n_features_in_\": 12, \"type\": \"XGBClassifier\"}"},"gradient_booster":{"model":{"gbtree_model_param":{"num_trees":"100","size_leaf_vector":"0"},"tree_info":[0,0,0,0,0,0,0,0,0,0,0,0,0,0,0,0,0,0,0,0,0,0,0,0,0,0,0,0,0,0,0,0,0,0,0,0,0,0,0,0,0,0,0,0,0,0,0,0,0,0,0,0,0,0,0,0,0,0,0,0,0,0,0,0,0,0,0,0,0,0,0,0,0,0,0,0,0,0,0,0,0,0,0,0,0,0,0,0,0,0,0,0,0,0,0,0,0,0,0,0],"trees":[{"base_weights":[-1.0366344E0,-1.734891E0,-1.943786E-1,-1.8000686E0,1.826087E0,-6.613762E-1,8.9359784E-1],"categories":[],"categories_nodes":[],"categories_segments":[],"categories_sizes":[],"default_left":[true,true,true,false,false,false,false],"id":0,"left_children":[1,3,5,-1,-1,-1,-1],"loss_changes":[4.787619E3,1.0363467E3,1.8760499E3,0E0,0E0,0E0,0E0],"parents":[2147483647,0,0,1,1,2,2],"right_children":[2,4,6,-1,-1,-1,-1],"split_conditions":[3.5E0,7.0735E3,1.25E1,-5.400206E-1,5.478261E-1,-1.9841287E-1,2.6807937E-1],"split_indices":[5,8,2,0,0,0,0],"split_type":[0,0,0,0,0,0,0],"sum_hessian":[8.14025E3,4.45E3,3.69025E3,4.3705E3,7.95E1,2.58225E3,1.108E3],"tree_param":{"num_deleted":"0","num_feature":"12","num_nodes":"7","size_leaf_vector":"0"}},{"base_weights":[-7.656659E-1,-1.3183604E0,-1.3769695E-1,-1.3679774E0,1.3967304E0,-3.1926298E-1,1.9130796E0],"categories":[],"categories_nodes":[],"categories_segments":[],"categories_sizes":[],"default_left":[true,true,true,false,false,false,false],"id":1,"left_children":[1,3,5,-1,-1,-1,-1],"loss_changes":[2.7024526E3,5.598384E2,1.3583269E3,0E0,0E0,0E0,0E0],"parents":[2147483647,0,0,1,1,2,2],"right_children":[2,4,6,-1,-1,-1,-1],"split_conditions":[3.5E0,7.0735E3,5.0955E3,-4.1039324E-1,4.1901913E-1,-9.57789E-2,5.739239E-1],"split_indices":[5,8,8,0,0,0,0],"split_type":[0,0,0,0,0,0,0],"sum_hessian":[7.7858887E3,4.140558E3,3.6453303E3,4.0667368E3,7.382139E1,3.3496155E3,2.9571475E2],"tree_param":{"num_deleted":"0","num_feature":"12","num_nodes":"7","size_leaf_vector":"0"}},{"base_weights":[-5.950927E-1,-1.096881E0,-9.608093E-2,-1.1469038E0,9.293964E-1,-6.8407303E-1,3.5769913E-1],"categories":[],"categories_nodes":[],"categories_segments":[],"categories_sizes":[],"default_left":[true,true,true,false,false,false,false],"id":2,"left_children":[1,3,5,-1,-1,-1,-1],"loss_changes":[1.797583E3,3.6389404E2,9.6098346E2,0E0,0E0,0E0,0E0],"parents":[2147483647,0,0,1,1,2,2],"right_children":[2,4,6,-1,-1,-1,-1],"split_conditions":[3.5E0,4.6685E3,9.5E0,-3.4407115E-1,2.7881894E-1,-2.0522192E-1,1.07309744E-1],"split_indices":[5,8,2,0,0,0,0],"split_type":[0,0,0,0,0,0,0],"sum_hessian":[7.1783145E3,3.5786023E3,3.5997124E3,3.492809E3,8.579303E1,1.5677588E3,2.0319536E3],"tree_param":{"num_deleted":"0","num_feature":"12","num_nodes":"7","size_leaf_vector":"0"}},{"base_weights":[-4.7191933E-1,-9.433052E-1,-6.997308E-2,-1.1060506E0,-3.112486E-1,-1.9598038E-1,1.4949898E0],"categories":[],"categories_nodes":[],"categories_segments":[],"categories_sizes":[],"default_left":[true,true,true,false,false,false,false],"id":3,"left_children":[1,3,5,-1,-1,-1,-1],"loss_changes":[1.2406566E3,3.0966284E2,6.974967E2,0E0,0E0,0E0,0E0],"parents":[2147483647,0,0,1,1,2,2],"right_children":[2,4,6,-1,-1,-1,-1],"split_conditions":[3.5E0,1.25E1,5.0955E3,-3.3181518E-1,-9.337458E-2,-5.879412E-2,4.4849694E-1],"split_indices":[5,2,8,0,0,0,0],"split_type":[0,0,0,0,0,0,0],"sum_hessian":[6.547323E3,3.012749E3,3.534574E3,2.3952556E3,6.174935E2,3.271995E3,2.6257898E2],"tree_param":{"num_deleted":"0","num_feature":"12","num_nodes":"7","size_leaf_vector":"0"}},{"base_weights":[-3.7043822E-1,-1.0518527E0,-1.3557756E-1,-1.0731733E0,9.8711973E-1,-4.0633968E-1,5.002166E-1],"categories":[],"categories_nodes":[],"categories_segments":[],"categories_sizes":[],"default_left":[true,true,true,false,false,false,false],"id":4,"left_children":[1,3,5,-1,-1,-1,-1],"loss_changes":[9.6289233E2,6.810535E1,7.707903E2,0E0,0E0,0E0,0E0],"parents":[2147483647,0,0,1,1,2,2],"right_children":[2,4,6,-1,-1,-1,-1],"split_conditions":[2.95E1,7.0735E3,1.25E1,-3.21952E-1,2.9613593E-1,-1.2190191E-1,1.5006499E-1],"split_indices":[0,8,2,0,0,0,0],"split_type":[0,0,0,0,0,0,0],"sum_hessian":[6.0165596E3,1.5412794E3,4.47528E3,1.5257985E3,1.5480879E1,3.1388965E3,1.3363835E3],"tree_param":{"num_deleted":"0","num_feature":"12","num_nodes":"7","size_leaf_vector":"0"}},{"base_weights":[-2.8591606E-1,-7.4181765E-1,2.1841198E-2,-9.2444676E-1,-8.6697675E-2,-6.6172436E-2,1.5635854E0],"categories":[],"categories_nodes":[],"categories_segments":[],"categories_sizes":[],"default_left":[true,true,true,false,false,false,false],"id":5,"left_children":[1,3,5,-1,-1,-1,-1],"loss_changes":[7.8976935E2,2.7132446E2,4.5621536E2,0E0,0E0,0E0,0E0],"parents":[2147483647,0,0,1,1,2,2],"right_children":[2,4,6,-1,-1,-1,-1],"split_conditions":[3.5E0,4.35E1,1.7825E3,-2.7733403E-1,-2.6009304E-2,-1.9851731E-2,4.6907565E-1],"split_indices":[5,10,9,0,0,0,0],"split_type":[0,0,0,0,0,0,0],"sum_hessian":[5.6277495E3,2.2674348E3,3.3603147E3,1.7728131E3,4.946218E2,3.1797493E3,1.8056543E2],"tree_param":{"num_deleted":"0","num_feature":"12","num_nodes":"7","size_leaf_vector":"0"}},{"base_weights":[-2.2118406E-1,-7.180841E-1,2.0246185E-2,-7.616369E-1,1.073275E0,-6.5404244E-2,1.312781E0],"categories":[],"categories_nodes":[],"categories_segments":[],"categories_sizes":[],"default_left":[true,true,true,false,false,false,false],"id":6,"left_children":[1,3,5,-1,-1,-1,-1],"loss_changes":[6.348971E2,1.358316E2,3.9448993E2,0E0,0E0,0E0,0E0],"parents":[2147483647,0,0,1,1,2,2],"right_children":[2,4,6,-1,-1,-1,-1],"split_conditions":[3.35E1,5.119E3,7.0735E3,-2.2849108E-1,3.219825E-1,-1.9621274E-2,3.9383432E-1],"split_indices":[0,8,8,0,0,0,0],"split_type":[0,0,0,0,0,0,0],"sum_hessian":[5.2911567E3,1.7295358E3,3.561621E3,1.6890453E3,4.0490444E1,3.3411665E3,2.2045459E2],"tree_param":{"num_deleted":"0","num_feature":"12","num_nodes":"7","size_leaf_vector":"0"}},{"base_weights":[-1.6581938E-1,-4.019189E-1,2.8595656E-1,-7.901881E-1,-1.5074234E-1,1.4637598E-2,6.5583515E-1],"categories":[],"categories_nodes":[],"categories_segments":[],"categories_sizes":[],"default_left":[true,true,true,false,false,false,false],"id":7,"left_children":[1,3,5,-1,-1,-1,-1],"loss_changes":[5.361044E2,3.217787E2,1.7313535E2,0E0,0E0,0E0,0E0],"parents":[2147483647,0,0,1,1,2,2],"right_children":[2,4,6,-1,-1,-1,-1],"split_conditions":[4.15E1,3.5E0,1.15E1,-2.3705643E-1,-4.5222703E-2,4.3912795E-3,1.9675055E-1],"split_indices":[10,5,2,0,0,0,0],"split_type":[0,0,0,0,0,0,0],"sum_hessian":[5.024023E3,3.2997E3,1.724323E3,1.2952908E3,2.004409E3,9.952855E2,7.290375E2],"tree_param":{"num_deleted":"0","num_feature":"12","num_nodes":"7","size_leaf_vector":"0"}},{"base_weights":[-1.2724333E-1,-8.634656E-1,-4.783766E-3,-1.023159E0,-6.137693E-1,-8.7311274E-1,9.830388E-2],"categories":[],"categories_nodes":[],"categories_segments":[],"categories_sizes":[],"default_left":[true,true,true,false,false,false,false],"id":8,"left_children":[1,3,5,-1,-1,-1,-1],"loss_changes":[4.3219067E2,2.6632538E1,3.680891E2,0E0,0E0,0E0,0E0],"parents":[2147483647,0,0,1,1,2,2],"right_children":[2,4,6,-1,-1,-1,-1],"split_conditions":[2.75E1,2.45E1,8.5E0,-3.069477E-1,-1.8413079E-1,-2.6193383E-1,2.9491164E-2],"split_indices":[0,0,2,0,0,0,0],"split_type":[0,0,0,0,0,0,0],"sum_hessian":[4.792778E3,6.826515E2,4.1101265E3,4.1447568E2,2.681758E2,4.3537778E2,3.6747485E3],"tree_param":{"num_deleted":"0","num_feature":"12","num_nodes":"7","size_leaf_vector":"0"}},{"base_weights":[-9.716441E-2,-1.6087225E-1,1.0878557E0,-2.2413865E-1,1.2051823E0,5.460156E-1,1.1763735E0],"categories":[],"categories_nodes":[],"categories_segments":[],"categories_sizes":[],"default_left":[true,true,true,false,false,false,false],"id":9,"left_children":[1,3,5,-1,-1,-1,-1],"loss_changes":[3.5119174E2,3.8168176E2,1.0741058E1,0E0,0E0,0E0,0E0],"parents":[2147483647,0,0,1,1,2,2],"right_children":[2,4,6,-1,-1,-1,-1],"split_conditions":[5.119E3,1.8205E3,7.0735E3,-6.7241594E-2,3.615547E-1,1.638047E-1,3.5291207E-1],"split_indices":[8,9,8,0,0,0,0],"split_type":[0,0,0,0,0,0,0],"sum_hessian":[4.6485317E3,4.412192E3,2.3633952E2,4.217693E3,1.9449907E2,3.4194504E1,2.0214502E2],"tree_param":{"num_deleted":"0","num_feature":"12","num_nodes":"7","size_leaf_vector":"0"}},{"base_weights":[-6.921659E-2,-8.038559E-1,3.1686436E-2,-9.353986E-1,-6.213047E-2,-1.7502317E-1,3.5076508E-1],"categories":[],"categories_nodes":[],"categories_segments":[],"categories_sizes":[],"default_left":[true,true,true,false,false,false,false],"id":10,"left_children":[1,3,5,-1,-1,-1,-1],"loss_changes":[3.329558E2,5.286566E1,2.6058368E2,0E0,0E0,0E0,0E0],"parents":[2147483647,0,0,1,1,2,2],"right_children":[2,4,6,-1,-1,-1,-1],"split_conditions":[3.45E1,4.5E0,1.05E1,-2.806196E-1,-1.8639142E-2,-5.2506953E-2,1.0522953E-1],"split_indices":[10,5,2,0,0,0,0],"split_type":[0,0,0,0,0,0,0],"sum_hessian":[4.4903306E3,5.414267E2,3.9489036E3,4.5964844E2,8.17783E1,2.3966965E3,1.5522072E3],"tree_param":{"num_deleted":"0","num_feature":"12","num_nodes":"7","size_leaf_vector":"0"}},{"base_weights":[-5.2453853E-2,-4.2413795E-1,1.1297353E-1,-5.413943E-1,5.9008914E-1,-7.127128E-1,1.9339168E-1],"categories":[],"categories_nodes":[],"categories_segments":[],"categories_sizes":[],"default_left":[true,true,true,false,false,false,false],"id":11,"left_children":[1,3,5,-1,-1,-1,-1],"loss_changes":[2.693919E2,1.6079475E2,2.014721E2,0E0,0E0,0E0,0E0],"parents":[2147483647,0,0,1,1,2,2],"right_children":[2,4,6,-1,-1,-1,-1],"split_conditions":[3.5E0,1.35E1,7.5E0,-1.6241829E-1,1.7702675E-1,-2.1381386E-1,5.8017507E-2],"split_indices":[5,2,2,0,0,0,0],"split_type":[0,0,0,0,0,0,0],"sum_hessian":[4.379522E3,1.3483871E3,3.031135E3,1.2090707E3,1.3931635E2,2.6831998E2,2.762815E3],"tree_param":{"num_deleted":"0","num_feature":"12","num_nodes":"7","size_leaf_vector":"0"}},{"base_weights":[-4.18332E-2,-3.7670717E-1,1.2670316E-1,-9.123996E-1,-2.5958073E-1,-5.570336E-1,2.0658793E-1],"categories":[],"categories_nodes":[],"categories_segments":[],"categories_sizes":[],"default_left":[true,true,true,false,false,false,false],"id":12,"left_children":[1,3,5,-1,-1,-1,-1],"loss_changes":[2.3942622E2,8.88737E1,1.5426294E2,0E0,0E0,0E0,0E0],"parents":[2147483647,0,0,1,1,2,2],"right_children":[2,4,6,-1,-1,-1,-1],"split_conditions":[3.55E1,2.45E1,3.45E1,-2.7371988E-1,-7.787422E-2,-1.6711009E-1,6.197638E-2],"split_indices":[0,0,10,0,0,0,0],"split_type":[0,0,0,0,0,0,0],"sum_hessian":[4.240409E3,1.4192297E3,2.8211792E3,2.5341493E2,1.1658147E3,2.945073E2,2.526672E3],"tree_param":{"num_deleted":"0","num_feature":"12","num_nodes":"7","size_leaf_vector":"0"}},{"base_weights":[-3.2604676E-2,-7.5974345E-2,1.0844808E0,-1.20589174E-1,8.762449E-1,-9.0108126E-1,1.1057314E0],"categories":[],"categories_nodes":[],"categories_segments":[],"categories_sizes":[],"default_left":[true,true,true,false,false,false,false],"id":13,"left_children":[1,3,5,-1,-1,-1,-1],"loss_changes":[2.0198589E2,1.7057516E2,7.5709076E0,0E0,0E0,0E0,0E0],"parents":[2147483647,0,0,1,1,2,2],"right_children":[2,4,6,-1,-1,-1,-1],"split_conditions":[7.0735E3,1.748E3,2.05E1,-3.6176752E-2,2.6287347E-1,-2.7032438E-1,3.3171943E-1],"split_indices":[8,9,0,0,0,0,0],"split_type":[0,0,0,0,0,0,0],"sum_hessian":[4.166459E3,4.011643E3,1.5481584E2,3.8329302E3,1.787129E2,1.2009579E0,1.5361488E2],"tree_param":{"num_deleted":"0","num_feature":"12","num_nodes":"7","size_leaf_vector":"0"}},{"base_weights":[-2.1907251E-2,-1.7371169E-1,2.2880916E-1,-3.301413E-1,1.381909E-1,4.355247E-1,8.366306E-2],"categories":[],"categories_nodes":[],"categories_segments":[],"categories_sizes":[],"default_left":[true,true,true,false,false,false,false],"id":14,"left_children":[1,3,5,-1,-1,-1,-1],"loss_changes":[1.5518695E2,1.2395559E2,4.6103096E1,0E0,0E0,0E0,0E0],"parents":[2147483647,0,0,1,1,2,2],"right_children":[2,4,6,-1,-1,-1,-1],"split_conditions":[4.15E1,9.5E0,4.5E0,-9.904239E-2,4.145727E-2,1.3065742E-1,2.509892E-2],"split_indices":[10,4,4,0,0,0,0],"split_type":[0,0,0,0,0,0,0],"sum_hessian":[4.0753992E3,2.5386174E3,1.5367817E3,1.6906442E3,8.479733E2,6.33111E2,9.036707E2],"tree_param":{"num_deleted":"0","num_feature":"12","num_nodes":"7","size_leaf_vector":"0"}},{"base_weights":[-1.6675228E-2,-6.660807E-1,3.907627E-2,-9.046827E-1,-4.568878E-1,-1.8798631E-1,1.8704587E-1],"categories":[],"categories_nodes":[],"categories_segments":[],"categories_sizes":[],"default_left":[true,true,true,false,false,false,false],"id":15,"left_children":[1,3,5,-1,-1,-1,-1],"loss_changes":[1.4609573E2,1.5510773E1,1.2490178E2,0E0,0E0,0E0,0E0],"parents":[2147483647,0,0,1,1,2,2],"right_children":[2,4,6,-1,-1,-1,-1],"split_conditions":[2.65E1,2.35E1,9.5E0,-2.7140483E-1,-1.3706635E-1,-5.6395896E-2,5.6113765E-2],"split_indices":[0,0,2,0,0,0,0],"split_type":[0,0,0,0,0,0,0],"sum_hessian":[4.0334812E3,3.1803174E2,3.7154497E3,1.4701929E2,1.7101244E2,1.4658304E3,2.2496191E3],"tree_param":{"num_deleted":"0","num_feature":"12","num_nodes":"7","size_leaf_vector":"0"}},{"base_weights":[-1.3742115E-2,-5.03836E-2,8.9735883E-1,2.843881E-2,-4.1285595E-1,4.4494924E-1,1.0868853E0],"categories":[],"categories_nodes":[],"categories_segments":[],"categories_sizes":[],"default_left":[true,true,true,false,false,false,false],"id":16,"left_children":[1,3,5,-1,-1,-1,-1],"loss_changes":[1.324257E2,1.08953156E2,1.2666191E1,0E0,0E0,0E0,0E0],"parents":[2147483647,0,0,1,1,2,2],"right_children":[2,4,6,-1,-1,-1,-1],"split_conditions":[5.119E3,2.5E0,3.5E0,8.531643E-3,-1.2385679E-1,1.3348478E-1,3.260656E-1],"split_indices":[8,3,5,0,0,0,0],"split_type":[0,0,0,0,0,0,0],"sum_hessian":[3.9643762E3,3.8120142E3,1.5236198E2,3.1318835E3,6.8013074E2,4.597203E1,1.06389946E2],"tree_param":{"num_deleted":"0","num_feature":"12","num_nodes":"7","size_leaf_vector":"0"}},{"base_weights":[-9.7813E-3,-4.3900706E-2,7.7658516E-1,-4.7822246E-1,1.7462822E-2,1.3732036E0,6.133159E-1],"categories":[],"categories_nodes":[],"categories_segments":[],"categories_sizes":[],"default_left":[true,true,true,false,false,false,false],"id":17,"left_children":[1,3,5,-1,-1,-1,-1],"loss_changes":[1.0424841E2,9.924843E1,1.4896759E1,0E0,0E0,0E0,0E0],"parents":[2147483647,0,0,1,1,2,2],"right_children":[2,4,6,-1,-1,-1,-1],"split_conditions":[1.45E1,3.55E1,5E-1,-1.4346674E-1,5.238847E-3,4.119611E-1,1.8399477E-1],"split_indices":[2,10,5,0,0,0,0],"split_type":[0,0,0,0,0,0,0],"sum_hessian":[3.8831938E3,3.7226187E3,1.6057535E2,4.6000186E2,3.2626167E3,3.2908928E1,1.2766642E2],"tree_param":{"num_deleted":"0","num_feature":"12","num_nodes":"7","size_leaf_vector":"0"}},{"base_weights":[-7.536013E-3,-2.222376E-1,1.04858875E-1,-3.4988698E-1,5.9544418E-2,1.6297205E-1,-3.9247045E-1],"categories":[],"categories_nodes":[],"categories_segments":[],"categories_sizes":[],"default_left":[true,true,true,false,false,false,false],"id":18,"left_children":[1,3,5,-1,-1,-1,-1],"loss_changes":[9.307678E1,4.76923E1,7.3236046E1,0E0,0E0,0E0,0E0],"parents":[2147483647,0,0,1,1,2,2],"right_children":[2,4,6,-1,-1,-1,-1],"split_conditions":[3.65E1,1.25E1,6.15E1,-1.049661E-1,1.7863326E-2,4.8891615E-2,-1.1774114E-1],"split_indices":[0,2,0,0,0,0,0],"split_type":[0,0,0,0,0,0,0],"sum_hessian":[3.855122E3,1.3243376E3,2.5307844E3,9.112795E2,4.1305814E2,2.266603E3,2.6418137E2],"tree_param":{"num_deleted":"0","num_feature":"12","num_nodes":"7","size_leaf_vector":"0"}},{"base_weights":[-6.4031975E-3,-3.1526323E-2,9.465777E-1,-5.243815E-1,1.2997002E-2,-5.068949E-1,9.7003233E-1],"categories":[],"categories_nodes":[],"categories_segments":[],"categories_sizes":[],"default_left":[true,true,true,false,false,false,false],"id":19,"left_children":[1,3,5,-1,-1,-1,-1],"loss_changes":[9.14578E1,8.1672615E1,3.8366394E0,0E0,0E0,0E0,0E0],"parents":[2147483647,0,0,1,1,2,2],"right_children":[2,4,6,-1,-1,-1,-1],"split_conditions":[7.0735E3,8.5E0,2.05E1,-1.5731446E-1,3.899101E-3,-1.5206847E-1,2.9100972E-1],"split_indices":[8,2,0,0,0,0,0],"split_type":[0,0,0,0,0,0,0],"sum_hessian":[3.817749E3,3.7206304E3,9.711885E1,3.0737173E2,3.4132585E3,1.2149837E0,9.590386E1],"tree_param":{"num_deleted":"0","num_feature":"12","num_nodes":"7","size_leaf_vector":"0"}},{"base_weights":[-4.4430527E-3,-3.444481E-2,6.641161E-1,-1.9334229E-2,-1.4671886E0,1.1243728E0,-2.0113249E-1],"categories":[],"categories_nodes":[],"categories_segments":[],"categories_sizes":[],"default_left":[true,true,true,false,false,false,false],"id":20,"left_children":[1,3,5,-1,-1,-1,-1],"loss_changes":[7.566472E1,7.812995E1,6.474568E1,0E0,0E0,0E0,0E0],"parents":[2147483647,0,0,1,1,2,2],"right_children":[2,4,6,-1,-1,-1,-1],"split_conditions":[1.748E3,1.5685E3,1.9785E3,-5.8002686E-3,-4.401566E-1,3.3731186E-1,-6.033975E-2],"split_indices":[9,9,9,0,0,0,0],"split_type":[0,0,0,0,0,0,0],"sum_hessian":[3.7701653E3,3.609152E3,1.6101314E2,3.572488E3,3.6664124E1,1.0490886E2,5.6104267E1],"tree_param":{"num_deleted":"0","num_feature":"12","num_nodes":"7","size_leaf_vector":"0"}},{"base_weights":[-3.0411682E-3,-2.3209552E-1,7.985745E-2,-2.7458823E-1,2.3267565E0,1.427832E-1,-2.6074797E-1],"categories":[],"categories_nodes":[],"categories_segments":[],"categories_sizes":[],"default_left":[true,true,true,false,false,false,false],"id":21,"left_children":[1,3,5,-1,-1,-1,-1],"loss_changes":[7.113098E1,1.08879295E2,5.899032E1,0E0,0E0,0E0,0E0],"parents":[2147483647,0,0,1,1,2,2],"right_children":[2,4,6,-1,-1,-1,-1],"split_conditions":[3.5E0,2.2185E3,5.5E0,-8.237647E-2,6.9802696E-1,4.283496E-2,-7.822439E-2],"split_indices":[5,9,1,0,0,0,0],"split_type":[0,0,0,0,0,0,0],"sum_hessian":[3.7440686E3,9.944734E2,2.7495952E3,9.791069E2,1.536652E1,2.3213198E3,4.2827542E2],"tree_param":{"num_deleted":"0","num_feature":"12","num_nodes":"7","size_leaf_vector":"0"}},{"base_weights":[-3.1668234E-3,-2.242242E-2,8.763017E-1,-6.876071E-2,3.3044517E-1,9.662646E-1,2.52124E-1],"categories":[],"categories_nodes":[],"categories_segments":[],"categories_sizes":[],"default_left":[true,true,true,false,false,false,false],"id":22,"left_children":[1,3,5,-1,-1,-1,-1],"loss_changes":[6.273252E1,5.929367E1,4.213127E0,0E0,0E0,0E0,0E0],"parents":[2147483647,0,0,1,1,2,2],"right_children":[2,4,6,-1,-1,-1,-1],"split_conditions":[7.0735E3,1.35E1,6.05E1,-2.0628214E-2,9.913356E-2,2.8987938E-1,7.563721E-2],"split_indices":[8,2,0,0,0,0,0],"split_type":[0,0,0,0,0,0,0],"sum_hessian":[3.702219E3,3.6238508E3,7.83682E1,3.20392E3,4.19931E2,6.801685E1,1.0351349E1],"tree_param":{"num_deleted":"0","num_feature":"12","num_nodes":"7","size_leaf_vector":"0"}},{"base_weights":[-1.5736821E-3,-6.6754884E-1,2.0884635E-2,-6.954819E-1,1.3055245E0,-5.70318E-1,4.3155085E-2],"categories":[],"categories_nodes":[],"categories_segments":[],"categories_sizes":[],"default_left":[true,true,true,false,false,false,false],"id":23,"left_children":[1,3,5,-1,-1,-1,-1],"loss_changes":[5.4787056E1,7.4939384E0,4.668115E1,0E0,0E0,0E0,0E0],"parents":[2147483647,0,0,1,1,2,2],"right_children":[2,4,6,-1,-1,-1,-1],"split_conditions":[2.45E1,2.167E3,5.5E0,-2.0864458E-1,3.9165735E-1,-1.710954E-1,1.29465265E-2],"split_indices":[0,9,2,0,0,0,0],"split_type":[0,0,0,0,0,0,0],"sum_hessian":[3.661117E3,1.184972E2,3.5426199E3,1.1748151E2,1.0156895E0,1.2771171E2,3.4149082E3],"tree_param":{"num_deleted":"0","num_feature":"12","num_nodes":"7","size_leaf_vector":"0"}},{"base_weights":[-2.0305743E-3,-9.260147E-2,1.4082275E-1,1.1379892E-1,-6.0556567E-1,2.0415376E-1,-2.1261674E-1],"categories":[],"categories_nodes":[],"categories_segments":[],"categories_sizes":[],"default_left":[true,true,true,false,false,false,false],"id":24,"left_children":[1,3,5,-1,-1,-1,-1],"loss_changes":[4.7117767E1,2.3603253E2,3.167213E1,0E0,0E0,0E0,0E0],"parents":[2147483647,0,0,1,1,2,2],"right_children":[2,4,6,-1,-1,-1,-1],"split_conditions":[9.5E0,4.5E0,1.35E1,3.4139678E-2,-1.8166971E-1,6.124613E-2,-6.3785024E-2],"split_indices":[4,4,4,0,0,0,0],"split_type":[0,0,0,0,0,0,0],"sum_hessian":[3.6397048E3,2.2276787E3,1.412026E3,1.5890671E3,6.3861163E2,1.1978176E3,2.142084E2],"tree_param":{"num_deleted":"0","num_feature":"12","num_nodes":"7","size_leaf_vector":"0"}},{"base_weights":[-3.1369214E-3,-3.6516938E-1,3.0740686E-2,-5.3722245E-1,2.4108657E-1,-7.736871E-2,1.7548421E-1],"categories":[],"categories_nodes":[],"categories_segments":[],"categories_sizes":[],"default_left":[true,true,true,false,false,false,false],"id":25,"left_children":[1,3,5,-1,-1,-1,-1],"loss_changes":[4.4235775E1,3.2321445E1,5.162409E1,0E0,0E0,0E0,0E0],"parents":[2147483647,0,0,1,1,2,2],"right_children":[2,4,6,-1,-1,-1,-1],"split_conditions":[3.45E1,4.5E0,4.35E1,-1.6116674E-1,7.2325975E-2,-2.3210613E-2,5.2645266E-2],"split_indices":[10,5,0,0,0,0,0],"split_type":[0,0,0,0,0,0,0],"sum_hessian":[3.6048127E3,3.0762323E2,3.2971895E3,2.3970871E2,6.791452E1,1.8877148E3,1.4094746E3],"tree_param":{"num_deleted":"0","num_feature":"12","num_nodes":"7","size_leaf_vector":"0"}},{"base_weights":[-2.8539842E-3,-2.4649434E-2,5.5366814E-1,-4.550191E-3,-1.531833E0,1.9002528E0,3.7157148E-1],"categories":[],"categories_nodes":[],"categories_segments":[],"categories_sizes":[],"default_left":[true,true,true,false,false,false,false],"id":26,"left_children":[1,3,5,-1,-1,-1,-1],"loss_changes":[4.3522194E1,1.0458747E2,3.245268E1,0E0,0E0,0E0,0E0],"parents":[2147483647,0,0,1,1,2,2],"right_children":[2,4,6,-1,-1,-1,-1],"split_conditions":[4.2435E3,3.12E3,4.401E3,-1.3650574E-3,-4.5954993E-1,5.7007587E-1,1.1147145E-1],"split_indices":[8,8,8,0,0,0,0],"split_type":[0,0,0,0,0,0,0],"sum_hessian":[3.5859583E3,3.4517314E3,1.3422676E2,3.407296E3,4.4435417E1,1.4865157E1,1.193616E2],"tree_param":{"num_deleted":"0","num_feature":"12","num_nodes":"7","size_leaf_vector":"0"}},{"base_weights":[-2.4556732E-3,-1.7662881E-1,6.654264E-2,-2.3638697E-1,3.986309E-1,5.220708E-1,-6.66492E-2],"categories":[],"categories_nodes":[],"categories_segments":[],"categories_sizes":[],"default_left":[true,true,true,false,false,false,false],"id":27,"left_children":[1,3,5,-1,-1,-1,-1],"loss_changes":[4.29504E1,3.495468E1,1.5534981E2,0E0,0E0,0E0,0E0],"parents":[2147483647,0,0,1,1,2,2],"right_children":[2,4,6,-1,-1,-1,-1],"split_conditions":[3.5E0,4.5E0,4.5E0,-7.0916094E-2,1.1958927E-1,1.5662125E-1,-1.999476E-2],"split_indices":[4,5,4,0,0,0,0],"split_type":[0,0,0,0,0,0,0],"sum_hessian":[3.5719646E3,1.01307904E3,2.5588855E3,9.182772E2,9.480186E1,5.782609E2,1.9806245E3],"tree_param":{"num_deleted":"0","num_feature":"12","num_nodes":"7","size_leaf_vector":"0"}},{"base_weights":[-2.2246984E-3,-1.7449355E-1,5.644709E-2,-4.6345493E-1,1.3948838E-1,7.2024636E-2,-1.1434305E0],"categories":[],"categories_nodes":[],"categories_segments":[],"categories_sizes":[],"default_left":[true,true,true,false,false,false,false],"id":28,"left_children":[1,3,5,-1,-1,-1,-1],"loss_changes":[3.5864983E1,8.185582E1,4.955687E1,0E0,0E0,0E0,0E0],"parents":[2147483647,0,0,1,1,2,2],"right_children":[2,4,6,-1,-1,-1,-1],"split_conditions":[3.5E0,5E-1,1.9895E3,-1.3903649E-1,4.1846517E-2,2.1607392E-2,-3.4302914E-1],"split_indices":[5,7,9,0,0,0,0],"split_type":[0,0,0,0,0,0,0],"sum_hessian":[3.5464417E3,9.0049225E2,2.6459495E3,4.6868222E2,4.3181E2,2.6129663E3,3.298315E1],"tree_param":{"num_deleted":"0","num_feature":"12","num_nodes":"7","size_leaf_vector":"0"}},{"base_weights":[-2.573045E-3,-1.1011479E-2,1.3790464E0,-1.4270401E-4,-9.469546E-1,1.6997267E0,-4.5749944E-2],"categories":[],"categories_nodes":[],"categories_segments":[],"categories_sizes":[],"default_left":[true,true,true,false,false,false,false],"id":29,"left_children":[1,3,5,-1,-1,-1,-1],"loss_changes":[4.111737E1,3.5655094E1,9.859802E0,0E0,0E0,0E0,0E0],"parents":[2147483647,0,0,1,1,2,2],"right_children":[2,4,6,-1,-1,-1,-1],"split_conditions":[2.3845E3,1.9785E3,6.05E1,-4.2811203E-5,-2.840864E-1,5.0991803E-1,-1.3724984E-2],"split_indices":[9,9,0,0,0,0,0],"split_type":[0,0,0,0,0,0,0],"sum_hessian":[3.5244504E3,3.504041E3,2.0409393E1,3.4648057E3,3.9235405E1,1.6502253E1,3.90714E0],"tree_param":{"num_deleted":"0","num_feature":"12","num_nodes":"7","size_leaf_vector":"0"}},{"base_weights":[-1.7149741E-3,-2.2683427E-2,5.61744E-1,-1.0582302E-1,1.05700366E-1,1.0890722E0,-9.993427E-2],"categories":[],"categories_nodes":[],"categories_segments":[],"categories_sizes":[],"default_left":[true,true,true,false,false,false,false],"id":30,"left_children":[1,3,5,-1,-1,-1,-1],"loss_changes":[4.1621567E1,3.6262978E1,4.421039E1,0E0,0E0,0E0,0E0],"parents":[2147483647,0,0,1,1,2,2],"right_children":[2,4,6,-1,-1,-1,-1],"split_conditions":[1.8815E3,9.5E0,1.9785E3,-3.1746905E-2,3.171011E-2,3.2672167E-1,-2.9980283E-2],"split_indices":[9,4,9,0,0,0,0],"split_type":[0,0,0,0,0,0,0],"sum_hessian":[3.5207358E3,3.3953418E3,1.2539386E2,2.0609043E3,1.3344377E3,6.942182E1,5.5972042E1],"tree_param":{"num_deleted":"0","num_feature":"12","num_nodes":"7","size_leaf_vector":"0"}},{"base_weights":[-7.498906E-4,-1.3523129E-2,7.665767E-1,-7.129199E-1,-1.0074013E-3,8.8425046E-1,1.0944104E-1],"categories":[],"categories_nodes":[],"categories_segments":[],"categories_sizes":[],"default_left":[true,true,true,false,false,false,false],"id":31,"left_children":[1,3,5,-1,-1,-1,-1],"loss_changes":[3.4273853E1,3.0107437E1,4.330818E0,0E0,0E0,0E0,0E0],"parents":[2147483647,0,0,1,1,2,2],"right_children":[2,4,6,-1,-1,-1,-1],"split_conditions":[7.0735E3,2.35E1,6.05E1,-2.1387598E-1,-3.022204E-4,2.6527515E-1,3.2832313E-2],"split_indices":[8,0,0,0,0,0,0],"split_type":[0,0,0,0,0,0,0],"sum_hessian":[3.4948298E3,3.4385723E3,5.625753E1,5.9467743E1,3.3791045E3,4.7420326E1,8.837206E0],"tree_param":{"num_deleted":"0","num_feature":"12","num_nodes":"7","size_leaf_vector":"0"}},{"base_weights":[-4.6949935E-4,-2.435814E-1,3.1508736E-2,-3.2724234E-1,1.2529922E-1,7.0812516E-2,-1.879285E-1],"categories":[],"categories_nodes":[],"categories_segments":[],"categories_sizes":[],"default_left":[true,true,true,false,false,false,false],"id":32,"left_children":[1,3,5,-1,-1,-1,-1],"loss_changes":[2.7026579E1,1.2512491E1,2.6510998E1,0E0,0E0,0E0,0E0],"parents":[2147483647,0,0,1,1,2,2],"right_children":[2,4,6,-1,-1,-1,-1],"split_conditions":[3.5E0,4.95E1,5.5E0,-9.817271E-2,3.7589766E-2,2.1243755E-2,-5.637855E-2],"split_indices":[6,10,1,0,0,0,0],"split_type":[0,0,0,0,0,0,0],"sum_hessian":[3.4744177E3,4.031193E2,3.0712983E3,3.28687E2,7.443228E1,2.6053306E3,4.659679E2],"tree_param":{"num_deleted":"0","num_feature":"12","num_nodes":"7","size_leaf_vector":"0"}},{"base_weights":[-6.4454734E-4,-9.0680085E-3,8.472843E-1,4.3297678E-4,-1.391657E0,1.2486578E0,3.2220176E-1],"categories":[],"categories_nodes":[],"categories_segments":[],"categories_sizes":[],"default_left":[true,true,true,false,false,false,false],"id":33,"left_children":[1,3,5,-1,-1,-1,-1],"loss_changes":[2.4803791E1,4.516822E1,6.796854E0,0E0,0E0,0E0,0E0],"parents":[2147483647,0,0,1,1,2,2],"right_children":[2,4,6,-1,-1,-1,-1],"split_conditions":[2.2185E3,1.9785E3,3.5E0,1.2989304E-4,-4.1749713E-1,3.7459737E-1,9.666053E-2],"split_indices":[9,9,5,0,0,0,0],"split_type":[0,0,0,0,0,0,0],"sum_hessian":[3.4706309E3,3.4374717E3,3.315909E1,3.415004E3,2.2467808E1,1.8012384E1,1.5146705E1],"tree_param":{"num_deleted":"0","num_feature":"12","num_nodes":"7","size_leaf_vector":"0"}},{"base_weights":[-6.4876064E-4,-1.6370522E-2,4.6709493E-1,-5.190437E-3,-8.1878E-1,9.4533753E-1,-6.016638E-2],"categories":[],"categories_nodes":[],"categories_segments":[],"categories_sizes":[],"default_left":[true,true,true,false,false,false,false],"id":34,"left_children":[1,3,5,-1,-1,-1,-1],"loss_changes":[2.5523352E1,3.0119364E1,2.8517124E1,0E0,0E0,0E0,0E0],"parents":[2147483647,0,0,1,1,2,2],"right_children":[2,4,6,-1,-1,-1,-1],"split_conditions":[1.8815E3,1.5685E3,1.9785E3,-1.5571312E-3,-2.45634E-1,2.8360128E-1,-1.8049914E-2],"split_indices":[9,9,9,0,0,0,0],"split_type":[0,0,0,0,0,0,0],"sum_hessian":[3.4687522E3,3.3568857E3,1.1186636E2,3.311749E3,4.5136604E1,5.824416E1,5.3622208E1],"tree_param":{"num_deleted":"0","num_feature":"12","num_nodes":"7","size_leaf_vector":"0"}},{"base_weights":[-2.0102729E-4,-7.338873E-2,9.1588095E-2,-1.1781419E-1,3.522764E-1,1.5156963E-1,-2.4643323E-1],"categories":[],"categories_nodes":[],"categories_segments":[],"categories_sizes":[],"default_left":[true,true,true,false,false,false,false],"id":35,"left_children":[1,3,5,-1,-1,-1,-1],"loss_changes":[2.3222813E1,3.641235E1,3.1130352E1,0E0,0E0,0E0,0E0],"parents":[2147483647,0,0,1,1,2,2],"right_children":[2,4,6,-1,-1,-1,-1],"split_conditions":[4.35E1,4.5E0,6.15E1,-3.5344258E-2,1.0568293E-1,4.5470893E-2,-7.392997E-2],"split_indices":[0,5,0,0,0,0,0],"split_type":[0,0,0,0,0,0,0],"sum_hessian":[3.4548887E3,1.9223281E3,1.5325605E3,1.7413152E3,1.8101288E2,1.3020625E3,2.3049806E2],"tree_param":{"num_deleted":"0","num_feature":"12","num_nodes":"7","size_leaf_vector":"0"}},{"base_weights":[-4.3096193E-4,-1.01466905E-2,6.86006E-1,-2.7072405E-2,3.8084227E-1,8.102893E-1,1.3395469E-1],"categories":[],"categories_nodes":[],"categories_segments":[],"categories_sizes":[],"default_left":[true,true,true,false,false,false,false],"id":36,"left_children":[1,3,5,-1,-1,-1,-1],"loss_changes":[2.2974682E1,2.2489233E1,3.1901112E0,0E0,0E0,0E0,0E0],"parents":[2147483647,0,0,1,1,2,2],"right_children":[2,4,6,-1,-1,-1,-1],"split_conditions":[7.0735E3,1.45E1,6.05E1,-8.121722E-3,1.1425269E-1,2.430868E-1,4.018641E-2],"split_indices":[8,2,0,0,0,0,0],"split_type":[0,0,0,0,0,0,0],"sum_hessian":[3.4428313E3,3.3957534E3,4.707778E1,3.2557446E3,1.4000879E2,3.804494E1,9.032839E0],"tree_param":{"num_deleted":"0","num_feature":"12","num_nodes":"7","size_leaf_vector":"0"}},{"base_weights":[1.0398293E-4,-2.0701446E-1,3.0876128E-2,-5.045748E-1,-1.03003256E-1,1.2580454E-1,-4.520016E-2],"categories":[],"categories_nodes":[],"categories_segments":[],"categories_sizes":[],"default_left":[true,true,true,false,false,false,false],"id":37,"left_children":[1,3,5,-1,-1,-1,-1],"loss_changes":[2.1838533E1,1.366577E1,2.1550043E1,0E0,0E0,0E0,0E0],"parents":[2147483647,0,0,1,1,2,2],"right_children":[2,4,6,-1,-1,-1,-1],"split_conditions":[3.85E1,3.55E1,4.5E0,-1.5137243E-1,-3.0900978E-2,3.7741363E-2,-1.3560049E-2],"split_indices":[10,0,4,0,0,0,0],"split_type":[0,0,0,0,0,0,0],"sum_hessian":[3.4244668E3,4.4222827E2,2.9822385E3,1.1354424E2,3.2868405E2,1.3264425E3,1.655796E3],"tree_param":{"num_deleted":"0","num_feature":"12","num_nodes":"7","size_leaf_vector":"0"}},{"base_weights":[-2.87587E-4,-6.735721E-2,1.0163311E-1,5.6705464E-2,-4.180316E-1,1.482606E-1,-1.6117059E-1],"categories":[],"categories_nodes":[],"categories_segments":[],"categories_sizes":[],"default_left":[true,true,true,false,false,false,false],"id":38,"left_children":[1,3,5,-1,-1,-1,-1],"loss_changes":[2.3377632E1,8.975778E1,1.6656113E1,0E0,0E0,0E0,0E0],"parents":[2147483647,0,0,1,1,2,2],"right_children":[2,4,6,-1,-1,-1,-1],"split_conditions":[9.5E0,4.5E0,1.35E1,1.701164E-2,-1.2540948E-1,4.4478178E-2,-4.835118E-2],"split_indices":[4,4,4,0,0,0,0],"split_type":[0,0,0,0,0,0,0],"sum_hessian":[3.4178894E3,2.061587E3,1.3563025E3,1.5234531E3,5.381337E2,1.1522946E3,2.0400798E2],"tree_param":{"num_deleted":"0","num_feature":"12","num_nodes":"7","size_leaf_vector":"0"}},{"base_weights":[-9.927087E-4,-1.3641633E-1,5.2764364E-2,-4.192087E-1,-5.6966238E-2,3.3818302E-1,-3.4260746E-2],"categories":[],"categories_nodes":[],"categories_segments":[],"categories_sizes":[],"default_left":[true,true,true,false,false,false,false],"id":39,"left_children":[1,3,5,-1,-1,-1,-1],"loss_changes":[2.4714403E1,2.165017E1,6.037406E1,0E0,0E0,0E0,0E0],"parents":[2147483647,0,0,1,1,2,2],"right_children":[2,4,6,-1,-1,-1,-1],"split_conditions":[3.5E0,3.5E0,4.5E0,-1.2576261E-1,-1.7089872E-2,1.01454906E-1,-1.0278224E-2],"split_indices":[4,5,4,0,0,0,0],"split_type":[0,0,0,0,0,0,0],"sum_hessian":[3.3928574E3,9.636682E2,2.4291892E3,2.1042197E2,7.532462E2,5.669293E2,1.8622599E3],"tree_param":{"num_deleted":"0","num_feature":"12","num_nodes":"7","size_leaf_vector":"0"}},{"base_weights":[-1.1774855E-3,-3.6948964E-1,1.3753473E-2,-6.949538E-1,-2.0135383E-1,5.2501565E-1,-6.5086735E-3],"categories":[],"categories_nodes":[],"categories_segments":[],"categories_sizes":[],"default_left":[true,true,true,false,false,false,false],"id":40,"left_children":[1,3,5,-1,-1,-1,-1],"loss_changes":[1.8532871E1,7.044878E0,3.355554E1,0E0,0E0,0E0,0E0],"parents":[2147483647,0,0,1,1,2,2],"right_children":[2,4,6,-1,-1,-1,-1],"split_conditions":[5E-1,4.55E1,1.5E0,-2.0848615E-1,-6.0406152E-2,1.5750471E-1,-1.9526022E-3],"split_indices":[4,0,1,0,0,0,0],"split_type":[0,0,0,0,0,0,0],"sum_hessian":[3.3681465E3,1.3029613E2,3.2378503E3,4.33157E1,8.698042E1,1.224799E2,3.1153704E3],"tree_param":{"num_deleted":"0","num_feature":"12","num_nodes":"7","size_leaf_vector":"0"}},{"base_weights":[-1.0979914E-3,-1.466685E-2,3.733794E-1,-4.4184523E-3,-1.3120582E0,6.9944996E-1,-3.5466835E-2],"categories":[],"categories_nodes":[],"categories_segments":[],"categories_sizes":[],"default_left":[true,true,true,false,false,false,false],"id":41,"left_children":[1,3,5,-1,-1,-1,-1],"loss_changes":[1.710403E1,4.3184704E1,1.5716198E1,0E0,0E0,0E0,0E0],"parents":[2147483647,0,0,1,1,2,2],"right_children":[2,4,6,-1,-1,-1,-1],"split_conditions":[1.748E3,1.5685E3,1.9785E3,-1.3255357E-3,-3.9361748E-1,2.09835E-1,-1.0640051E-2],"split_indices":[9,9,9,0,0,0,0],"split_type":[0,0,0,0,0,0,0],"sum_hessian":[3.3640422E3,3.2473386E3,1.1670362E2,3.2228835E3,2.4454906E1,6.452871E1,5.217491E1],"tree_param":{"num_deleted":"0","num_feature":"12","num_nodes":"7","size_leaf_vector":"0"}},{"base_weights":[-9.4423577E-4,-6.278144E-3,9.3841845E-1,-2.2525217E-1,1.654638E-2,1.0957698E0,-7.519229E-1],"categories":[],"categories_nodes":[],"categories_segments":[],"categories_sizes":[],"default_left":[true,true,true,false,false,false,false],"id":42,"left_children":[1,3,5,-1,-1,-1,-1],"loss_changes":[1.6805418E1,1.6671701E1,5.860895E0,0E0,0E0,0E0,0E0],"parents":[2147483647,0,0,1,1,2,2],"right_children":[2,4,6,-1,-1,-1,-1],"split_conditions":[2.3845E3,3.85E1,3.7265E3,-6.7575656E-2,4.963914E-3,3.2873094E-1,-2.2557688E-1],"split_indices":[9,11,9,0,0,0,0],"split_type":[0,0,0,0,0,0,0],"sum_hessian":[3.3518813E3,3.3339438E3,1.7937551E1,3.1386978E2,3.020074E3,1.6731762E1,1.2057879E0],"tree_param":{"num_deleted":"0","num_feature":"12","num_nodes":"7","size_leaf_vector":"0"}},{"base_weights":[-6.427258E-4,-1.06260795E-2,4.790349E-1,-1.7823495E-3,-1.9110934E0,-1.443761E-1,8.7755424E-1],"categories":[],"categories_nodes":[],"categories_segments":[],"categories_sizes":[],"default_left":[true,true,true,false,false,false,false],"id":43,"left_children":[1,3,5,-1,-1,-1,-1],"loss_changes":[1.6043795E1,5.515639E1,1.7096863E1,0E0,0E0,0E0,0E0],"parents":[2147483647,0,0,1,1,2,2],"right_children":[2,4,6,-1,-1,-1,-1],"split_conditions":[5.119E3,4.9735E3,3.5E0,-5.347049E-4,-5.73328E-1,-4.3312833E-2,2.632663E-1],"split_indices":[8,8,5,0,0,0,0],"split_type":[0,0,0,0,0,0,0],"sum_hessian":[3.3482173E3,3.280911E3,6.730654E1,3.2667102E3,1.4200537E1,2.6496035E1,4.081051E1],"tree_param":{"num_deleted":"0","num_feature":"12","num_nodes":"7","size_leaf_vector":"0"}},{"base_weights":[-3.9508357E-4,-8.3045334E-1,5.269373E-3,-5.0813805E-2,-8.675411E-1,-1.4010103E-2,2.2170538E-1],"categories":[],"categories_nodes":[],"categories_segments":[],"categories_sizes":[],"default_left":[true,true,true,false,false,false,false],"id":44,"left_children":[1,3,5,-1,-1,-1,-1],"loss_changes":[1.5710024E1,6.1074924E-1,1.3851207E1,0E0,0E0,0E0,0E0],"parents":[2147483647,0,0,1,1,2,2],"right_children":[2,4,6,-1,-1,-1,-1],"split_conditions":[2.15E1,2.65E1,4.5E0,-1.5244142E-2,-2.6026234E-1,-4.2030313E-3,6.6511616E-2],"split_indices":[0,11,5,0,0,0,0],"split_type":[0,0,0,0,0,0,0],"sum_hessian":[3.3393274E3,2.1646755E1,3.3176807E3,1.09061E0,2.0556145E1,3.0471821E3,2.7049866E2],"tree_param":{"num_deleted":"0","num_feature":"12","num_nodes":"7","size_leaf_vector":"0"}},{"base_weights":[-5.432648E-4,-1.4770958E-1,3.6605176E-2,-3.5495692E-1,1.5306525E-1,2.9732797E-2,1.6265993E0],"categories":[],"categories_nodes":[],"categories_segments":[],"categories_sizes":[],"default_left":[true,true,true,false,false,false,false],"id":45,"left_children":[1,3,5,-1,-1,-1,-1],"loss_changes":[1.8238691E1,4.1967945E1,2.905863E1,0E0,0E0,0E0,0E0],"parents":[2147483647,0,0,1,1,2,2],"right_children":[2,4,6,-1,-1,-1,-1],"split_conditions":[5E-1,4.5E0,5.5E0,-1.0648708E-1,4.5919575E-2,8.91984E-3,4.879798E-1],"split_indices":[7,5,3,0,0,0,0],"split_type":[0,0,0,0,0,0,0],"sum_hessian":[3.334154E3,6.7139526E2,2.6627588E3,3.973933E2,2.7400195E2,2.6523135E3,1.0445303E1],"tree_param":{"num_deleted":"0","num_feature":"12","num_nodes":"7","size_leaf_vector":"0"}},{"base_weights":[-9.846233E-4,-5.583571E-2,8.067692E-2,-1.7777121E-1,1.4869432E-2,1.3745658E-1,-1.899765E-1],"categories":[],"categories_nodes":[],"categories_segments":[],"categories_sizes":[],"default_left":[true,true,true,false,false,false,false],"id":46,"left_children":[1,3,5,-1,-1,-1,-1],"loss_changes":[1.4860004E1,1.711224E1,2.0511137E1,0E0,0E0,0E0,0E0],"parents":[2147483647,0,0,1,1,2,2],"right_children":[2,4,6,-1,-1,-1,-1],"split_conditions":[4.15E1,3.85E1,5.5E0,-5.3331364E-2,4.46083E-3,4.1236974E-2,-5.699295E-2],"split_indices":[10,0,1,0,0,0,0],"split_type":[0,0,0,0,0,0,0],"sum_hessian":[3.3155342E3,1.9835342E3,1.332E3,7.2746326E2,1.2560709E3,1.1014268E3,2.3057327E2],"tree_param":{"num_deleted":"0","num_feature":"12","num_nodes":"7","size_leaf_vector":"0"}},{"base_weights":[-9.211875E-4,-5.4558627E-2,7.82893E-2,2.8815785E-2,-3.059921E-1,1.1380832E-1,-1.2467659E-1],"categories":[],"categories_nodes":[],"categories_segments":[],"categories_sizes":[],"default_left":[true,true,true,false,false,false,false],"id":47,"left_children":[1,3,5,-1,-1,-1,-1],"loss_changes":[1.4048209E1,4.1337517E1,9.638486E0,0E0,0E0,0E0,0E0],"parents":[2147483647,0,0,1,1,2,2],"right_children":[2,4,6,-1,-1,-1,-1],"split_conditions":[9.5E0,4.5E0,1.35E1,8.644736E-3,-9.1797635E-2,3.4142498E-2,-3.740298E-2],"split_indices":[4,4,4,0,0,0,0],"split_type":[0,0,0,0,0,0,0],"sum_hessian":[3.3045076E3,1.970496E3,1.3340116E3,1.4804647E3,4.9003125E2,1.1357029E3,1.9830865E2],"tree_param":{"num_deleted":"0","num_feature":"12","num_nodes":"7","size_leaf_vector":"0"}},{"base_weights":[-1.0702143E-3,-7.1125403E-3,6.5097284E-1,-1.0899531E-1,3.2635033E-2,8.8235193E-1,-7.2495356E-2],"categories":[],"categories_nodes":[],"categories_segments":[],"categories_sizes":[],"default_left":[true,true,true,false,false,false,false],"id":48,"left_children":[1,3,5,-1,-1,-1,-1],"loss_changes":[1.2952404E1,1.3193776E1,5.116808E0,0E0,0E0,0E0,0E0],"parents":[2147483647,0,0,1,1,2,2],"right_children":[2,4,6,-1,-1,-1,-1],"split_conditions":[7.5655E3,3.5E0,6.05E1,-3.2698594E-2,9.79051E-3,2.647056E-1,-2.1748608E-2],"split_indices":[8,4,0,0,0,0,0],"split_type":[0,0,0,0,0,0,0],"sum_hessian":[3.2853564E3,3.2561714E3,2.9185066E1,9.13333E2,2.3428384E3,2.194653E1,7.2385373E0],"tree_param":{"num_deleted":"0","num_feature":"12","num_nodes":"7","size_leaf_vector":"0"}},{"base_weights":[-5.7373237E-4,-1.9079809E-1,1.747645E-2,-9.264651E-1,-1.4373252E-1,3.0764338E-2,-2.6513433E-1],"categories":[],"categories_nodes":[],"categories_segments":[],"categories_sizes":[],"default_left":[true,true,true,false,false,false,false],"id":49,"left_children":[1,3,5,-1,-1,-1,-1],"loss_changes":[1.1252092E1,9.700497E0,1.1248106E1,0E0,0E0,0E0,0E0],"parents":[2147483647,0,0,1,1,2,2],"right_children":[2,4,6,-1,-1,-1,-1],"split_conditions":[2.85E1,2.55E1,6.45E1,-2.7793953E-1,-4.311976E-2,9.2293015E-3,-7.9540305E-2],"split_indices":[0,10,0,0,0,0,0],"split_type":[0,0,0,0,0,0,0],"sum_hessian":[3.275098E3,2.8300803E2,2.9920898E3,1.589372E1,2.6711432E2,2.8585754E3,1.335143E2],"tree_param":{"num_deleted":"0","num_feature":"12","num_nodes":"7","size_leaf_vector":"0"}},{"base_weights":[-7.5341994E-4,-1.0632059E-2,3.159698E-1,5.230016E-3,-1.411879E0,1.0646844E0,-9.581698E-3],"categories":[],"categories_nodes":[],"categories_segments":[],"categories_sizes":[],"default_left":[true,true,true,false,false,false,false],"id":50,"left_children":[1,3,5,-1,-1,-1,-1],"loss_changes":[1.0230482E1,7.048397E1,2.4116686E1,0E0,0E0,0E0,0E0],"parents":[2147483647,0,0,1,1,2,2],"right_children":[2,4,6,-1,-1,-1,-1],"split_conditions":[4.2435E3,3.12E3,4.9735E3,1.5690048E-3,-4.235637E-1,3.1940532E-1,-2.8745094E-3],"split_indices":[8,8,8,0,0,0,0],"split_type":[0,0,0,0,0,0,0],"sum_hessian":[3.2677104E3,3.16981E3,9.790036E1,3.1353147E3,3.4495403E1,2.8980227E1,6.892013E1],"tree_param":{"num_deleted":"0","num_feature":"12","num_nodes":"7","size_leaf_vector":"0"}},{"base_weights":[-1.0806841E-3,-5.073389E-3,7.679364E-1,6.58117E-4,-5.3477144E-1,1.0898654E0,-3.1430116E-1],"categories":[],"categories_nodes":[],"categories_segments":[],"categories_sizes":[],"default_left":[true,true,true,false,false,false,false],"id":51,"left_children":[1,3,5,-1,-1,-1,-1],"loss_changes":[1.0027751E1,9.863431E0,6.21968E0,0E0,0E0,0E0,0E0],"parents":[2147483647,0,0,1,1,2,2],"right_children":[2,4,6,-1,-1,-1,-1],"split_conditions":[2.3845E3,1.9785E3,6.05E1,1.974351E-4,-1.6043144E-1,3.2695964E-1,-9.429035E-2],"split_indices":[9,9,0,0,0,0,0],"split_type":[0,0,0,0,0,0,0],"sum_hessian":[3.263612E3,3.2477432E3,1.5868746E1,3.2139658E3,3.3777405E1,1.2225134E1,3.643612E0],"tree_param":{"num_deleted":"0","num_feature":"12","num_nodes":"7","size_leaf_vector":"0"}},{"base_weights":[-7.075015E-4,-1.1076141E-1,2.5979463E-2,-2.9107523E-1,1.3471238E-1,-3.5193288E-1,4.2565536E-2],"categories":[],"categories_nodes":[],"categories_segments":[],"categories_sizes":[],"default_left":[true,true,true,false,false,false,false],"id":52,"left_children":[1,3,5,-1,-1,-1,-1],"loss_changes":[9.583222E0,2.82257E1,1.647583E1,0E0,0E0,0E0,0E0],"parents":[2147483647,0,0,1,1,2,2],"right_children":[2,4,6,-1,-1,-1,-1],"split_conditions":[5E-1,4.5E0,2.85E1,-8.732257E-2,4.0413715E-2,-1.0557987E-1,1.2769661E-2],"split_indices":[7,5,10,0,0,0,0],"split_type":[0,0,0,0,0,0,0],"sum_hessian":[3.2609438E3,6.3580566E2,2.6251382E3,3.6644565E2,2.6936E2,1.09519806E2,2.5156184E3],"tree_param":{"num_deleted":"0","num_feature":"12","num_nodes":"7","size_leaf_vector":"0"}},{"base_weights":[-9.530291E-4,-5.892331E-3,5.958362E-1,-1.1139504E-2,5.4197735E-1,8.3035654E-1,2.661756E-2],"categories":[],"categories_nodes":[],"categories_segments":[],"categories_sizes":[],"default_left":[true,true,true,false,false,false,false],"id":53,"left_children":[1,3,5,-1,-1,-1,-1],"loss_changes":[9.561523E0,9.253824E0,3.5322905E0,0E0,0E0,0E0,0E0],"parents":[2147483647,0,0,1,1,2,2],"right_children":[2,4,6,-1,-1,-1,-1],"split_conditions":[7.5655E3,2.19E3,6.05E1,-3.3418513E-3,1.6259322E-1,2.4910697E-1,7.985269E-3],"split_indices":[8,9,0,0,0,0,0],"split_type":[0,0,0,0,0,0,0],"sum_hessian":[3.2415083E3,3.2158823E3,2.5625992E1,3.186345E3,2.9537266E1,1.7823763E1,7.802227E0],"tree_param":{"num_deleted":"0","num_feature":"12","num_nodes":"7","size_leaf_vector":"0"}},{"base_weights":[-4.0850393E-4,-2.1636635E-1,1.3076527E-2,-3.2094467E-1,3.4509188E-1,3.9738033E-2,-1.396171E-1],"categories":[],"categories_nodes":[],"categories_segments":[],"categories_sizes":[],"default_left":[true,true,true,false,false,false,false],"id":54,"left_children":[1,3,5,-1,-1,-1,-1],"loss_changes":[9.427044E0,1.1281721E1,1.240946E1,0E0,0E0,0E0,0E0],"parents":[2147483647,0,0,1,1,2,2],"right_children":[2,4,6,-1,-1,-1,-1],"split_conditions":[7.5E0,4.5E0,5.5E0,-9.6283406E-2,1.0352757E-1,1.192141E-2,-4.188513E-2],"split_indices":[2,1,1,0,0,0,0],"split_type":[0,0,0,0,0,0,0],"sum_hessian":[3.2351172E3,1.892531E2,3.045864E3,1.5989847E2,2.9354628E1,2.59372E3,4.521441E2],"tree_param":{"num_deleted":"0","num_feature":"12","num_nodes":"7","size_leaf_vector":"0"}},{"base_weights":[-5.260781E-4,-1.1748887E-2,2.6094428E-1,9.337772E-3,-1.550028E-1,-4.1744724E-1,3.814843E-1],"categories":[],"categories_nodes":[],"categories_segments":[],"categories_sizes":[],"default_left":[true,true,true,false,false,false,false],"id":55,"left_children":[1,3,5,-1,-1,-1,-1],"loss_changes":[9.482587E0,9.361083E0,1.1034568E1,0E0,0E0,0E0,0E0],"parents":[2147483647,0,0,1,1,2,2],"right_children":[2,4,6,-1,-1,-1,-1],"split_conditions":[1.45E1,3.5E0,3.25E1,2.8013317E-3,-4.6500843E-2,-1.2523417E-1,1.1444529E-1],"split_indices":[2,3,0,0,0,0,0],"split_type":[0,0,0,0,0,0,0],"sum_hessian":[3.2294448E3,3.0974514E3,1.3199348E2,2.7008298E3,3.9662137E2,1.9543087E1,1.1245039E2],"tree_param":{"num_deleted":"0","num_feature":"12","num_nodes":"7","size_leaf_vector":"0"}},{"base_weights":[-4.344606E-4,-1.4345759E-1,1.7256241E-2,-1.9608505E-1,6.7132205E-2,1.0597167E-2,5.0506145E-1],"categories":[],"categories_nodes":[],"categories_segments":[],"categories_sizes":[],"default_left":[true,true,true,false,false,false,false],"id":56,"left_children":[1,3,5,-1,-1,-1,-1],"loss_changes":[8.137393E0,3.9366765E0,9.291814E0,0E0,0E0,0E0,0E0],"parents":[2147483647,0,0,1,1,2,2],"right_children":[2,4,6,-1,-1,-1,-1],"split_conditions":[3.5E0,4.95E1,5.5E0,-5.882552E-2,2.0139663E-2,3.1791502E-3,1.5151843E-1],"split_indices":[6,10,3,0,0,0,0],"split_type":[0,0,0,0,0,0,0],"sum_hessian":[3.2141538E3,3.5301797E2,2.8611357E3,2.8249094E2,7.052703E1,2.823612E3,3.7523674E1],"tree_param":{"num_deleted":"0","num_feature":"12","num_nodes":"7","size_leaf_vector":"0"}},{"base_weights":[-4.2085708E-4,-7.199634E-1,2.9431228E-3,-8.139137E-1,-1.5282199E-1,-3.3124107E-1,9.920808E-3],"categories":[],"categories_nodes":[],"categories_segments":[],"categories_sizes":[],"default_left":[true,true,true,false,false,false,false],"id":57,"left_children":[1,3,5,-1,-1,-1,-1],"loss_changes":[7.7840037E0,6.729741E-1,7.4674573E0,0E0,0E0,0E0,0E0],"parents":[2147483647,0,0,1,1,2,2],"right_children":[2,4,6,-1,-1,-1,-1],"split_conditions":[2.15E1,4.55E1,4.5E0,-2.4417412E-1,-4.5846596E-2,-9.937233E-2,2.9762425E-3],"split_indices":[0,10,2,0,0,0,0],"split_type":[0,0,0,0,0,0,0],"sum_hessian":[3.213955E3,1.3964573E1,3.1999905E3,1.1606733E1,2.3578393E0,6.449801E1,3.1354924E3],"tree_param":{"num_deleted":"0","num_feature":"12","num_nodes":"7","size_leaf_vector":"0"}},{"base_weights":[-5.738393E-4,-2.4787068E-1,8.796764E-3,-5.354164E-1,-1.1719802E-1,3.5789958E-1,-5.6017833E-3],"categories":[],"categories_nodes":[],"categories_segments":[],"categories_sizes":[],"default_left":[true,true,true,false,false,false,false],"id":58,"left_children":[1,3,5,-1,-1,-1,-1],"loss_changes":[7.441984E0,4.3427067E0,1.5555598E1,0E0,0E0,0E0,0E0],"parents":[2147483647,0,0,1,1,2,2],"right_children":[2,4,6,-1,-1,-1,-1],"split_conditions":[5E-1,4.55E1,1.5E0,-1.6062494E-1,-3.515941E-2,1.0736988E-1,-1.680535E-3],"split_indices":[4,0,1,0,0,0,0],"split_type":[0,0,0,0,0,0,0],"sum_hessian":[3.20952E3,1.1624629E2,3.0932737E3,3.535346E1,8.089284E1,1.2158179E2,2.971692E3],"tree_param":{"num_deleted":"0","num_feature":"12","num_nodes":"7","size_leaf_vector":"0"}},{"base_weights":[-5.3786236E-4,-4.9392935E-3,4.7479302E-1,-1.1291476E-3,-1.358898E0,6.3087064E-1,5.377108E-2],"categories":[],"categories_nodes":[],"categories_segments":[],"categories_sizes":[],"default_left":[true,true,true,false,false,false,false],"id":59,"left_children":[1,3,5,-1,-1,-1,-1],"loss_changes":[6.7129374E0,1.6398708E1,1.9005523E0,0E0,0E0,0E0,0E0],"parents":[2147483647,0,0,1,1,2,2],"right_children":[2,4,6,-1,-1,-1,-1],"split_conditions":[7.0735E3,6.4575E3,6.05E1,-3.3874428E-4,-4.0766943E-1,1.892612E-1,1.6131325E-2],"split_indices":[8,8,0,0,0,0,0],"split_type":[0,0,0,0,0,0,0],"sum_hessian":[3.2065315E3,3.1780928E3,2.8438643E1,3.1701726E3,7.9202795E0,2.0383732E1,8.05491E0],"tree_param":{"num_deleted":"0","num_feature":"12","num_nodes":"7","size_leaf_vector":"0"}},{"base_weights":[-3.9735474E-4,-6.1766827E-3,3.6212525E-1,7.7198946E-4,-1.6235161E0,1.3046949E0,3.6989458E-2],"categories":[],"categories_nodes":[],"categories_segments":[],"categories_sizes":[],"default_left":[true,true,true,false,false,false,false],"id":60,"left_children":[1,3,5,-1,-1,-1,-1],"loss_changes":[6.713919E0,3.5448986E1,1.5362192E1,0E0,0E0,0E0,0E0],"parents":[2147483647,0,0,1,1,2,2],"right_children":[2,4,6,-1,-1,-1,-1],"split_conditions":[5.119E3,4.9735E3,5.3165E3,2.3159684E-4,-4.8705485E-1,3.9140847E-1,1.1096838E-2],"split_indices":[8,8,8,0,0,0,0],"split_type":[0,0,0,0,0,0,0],"sum_hessian":[3.2024575E3,3.1531726E3,4.928485E1,3.1406787E3,1.2493963E1,1.1867671E1,3.7417183E1],"tree_param":{"num_deleted":"0","num_feature":"12","num_nodes":"7","size_leaf_vector":"0"}},{"base_weights":[-2.9781277E-4,-3.827459E-2,5.20445E-2,-6.397335E-2,1.9611248E-1,1.316027E-1,-6.697079E-2],"categories":[],"categories_nodes":[],"categories_segments":[],"categories_sizes":[],"default_left":[true,true,true,false,false,false,false],"id":61,"left_children":[1,3,5,-1,-1,-1,-1],"loss_changes":[6.361301E0,1.1183574E1,1.2749769E1,0E0,0E0,0E0,0E0],"parents":[2147483647,0,0,1,1,2,2],"right_children":[2,4,6,-1,-1,-1,-1],"split_conditions":[4.45E1,4.5E0,5.45E1,-1.9192006E-2,5.8833748E-2,3.9480813E-2,-2.0091238E-2],"split_indices":[0,5,0,0,0,0,0],"split_type":[0,0,0,0,0,0,0],"sum_hessian":[3.198182E3,1.8535872E3,1.3445947E3,1.6710917E3,1.8249547E2,8.058212E2,5.387735E2],"tree_param":{"num_deleted":"0","num_feature":"12","num_nodes":"7","size_leaf_vector":"0"}},{"base_weights":[-2.7639305E-4,-9.740263E-2,2.2539742E-2,-2.2135663E-1,5.8539957E-2,2.3284924E-1,-8.475795E-3],"categories":[],"categories_nodes":[],"categories_segments":[],"categories_sizes":[],"default_left":[true,true,true,false,false,false,false],"id":62,"left_children":[1,3,5,-1,-1,-1,-1],"loss_changes":[7.0772862E0,1.175605E1,1.687107E1,0E0,0E0,0E0,0E0],"parents":[2147483647,0,0,1,1,2,2],"right_children":[2,4,6,-1,-1,-1,-1],"split_conditions":[5E-1,4.5E0,1.5E0,-6.6406995E-2,1.7561987E-2,6.985477E-2,-2.5427388E-3],"split_indices":[7,5,5,0,0,0,0],"split_type":[0,0,0,0,0,0,0],"sum_hessian":[3.191665E3,6.065152E2,2.58515E3,3.3768234E2,2.688329E2,3.3141187E2,2.253738E3],"tree_param":{"num_deleted":"0","num_feature":"12","num_nodes":"7","size_leaf_vector":"0"}},{"base_weights":[-5.124163E-4,-1.4448972E-1,1.3473475E-2,-1.0353551E-1,-7.133142E-1,4.122574E-3,2.5319418E-1],"categories":[],"categories_nodes":[],"categories_segments":[],"categories_sizes":[],"default_left":[true,true,true,false,false,false,false],"id":63,"left_children":[1,3,5,-1,-1,-1,-1],"loss_changes":[6.427581E0,6.5099072E0,6.5207267E0,0E0,0E0,0E0,0E0],"parents":[2147483647,0,0,1,1,2,2],"right_children":[2,4,6,-1,-1,-1,-1],"split_conditions":[3.55E1,3.25E1,1.45E1,-3.1060655E-2,-2.1399426E-1,1.2367722E-3,7.595826E-2],"split_indices":[11,11,2,0,0,0,0],"split_type":[0,0,0,0,0,0,0],"sum_hessian":[3.1900366E3,2.8161624E2,2.9084204E3,2.6380484E2,1.78114E1,2.8002085E3,1.0821188E2],"tree_param":{"num_deleted":"0","num_feature":"12","num_nodes":"7","size_leaf_vector":"0"}},{"base_weights":[-4.348265E-4,-9.492575E-3,2.0290217E-1,6.263469E-3,-1.3480328E0,2.1084137E0,-1.4387466E-1],"categories":[],"categories_nodes":[],"categories_segments":[],"categories_sizes":[],"default_left":[true,true,true,false,false,false,false],"id":64,"left_children":[1,3,5,-1,-1,-1,-1],"loss_changes":[5.871535E0,6.4374916E1,9.013997E1,0E0,0E0,0E0,0E0],"parents":[2147483647,0,0,1,1,2,2],"right_children":[2,4,6,-1,-1,-1,-1],"split_conditions":[3.048E3,5.7E1,3.12E3,1.8790407E-3,-4.0440986E-1,6.3252413E-1,-4.3162398E-2],"split_indices":[8,8,8,0,0,0,0],"split_type":[0,0,0,0,0,0,0],"sum_hessian":[3.18593E3,3.0509758E3,1.3495395E2,3.016464E3,3.4511673E1,1.9996225E1,1.1495772E2],"tree_param":{"num_deleted":"0","num_feature":"12","num_nodes":"7","size_leaf_vector":"0"}},{"base_weights":[-6.9797726E-4,-8.574192E-3,2.7243125E-1,3.0994078E-3,-1.2943038E0,8.3465785E-1,2.503853E-2],"categories":[],"categories_nodes":[],"categories_segments":[],"categories_sizes":[],"default_left":[true,true,true,false,false,false,false],"id":65,"left_children":[1,3,5,-1,-1,-1,-1],"loss_changes":[6.844064E0,4.6415356E1,1.2382189E1,0E0,0E0,0E0,0E0],"parents":[2147483647,0,0,1,1,2,2],"right_children":[2,4,6,-1,-1,-1,-1],"split_conditions":[4.2435E3,3.12E3,4.826E3,9.298224E-4,-3.8829115E-1,2.5039735E-1,7.511559E-3],"split_indices":[8,8,8,0,0,0,0],"split_type":[0,0,0,0,0,0,0],"sum_hessian":[3.179388E3,3.0912153E3,8.817262E1,3.0643901E3,2.6825108E1,2.621726E1,6.1955364E1],"tree_param":{"num_deleted":"0","num_feature":"12","num_nodes":"7","size_leaf_vector":"0"}},{"base_weights":[-8.9650205E-4,-8.521714E-3,2.265025E-1,-3.6830507E-4,-1.2389435E0,5.514036E-1,-1.7553407E-1],"categories":[],"categories_nodes":[],"categories_segments":[],"categories_sizes":[],"default_left":[true,true,true,false,false,false,false],"id":66,"left_children":[1,3,5,-1,-1,-1,-1],"loss_changes":[5.5085473E0,3.0834957E1,1.3560144E1,0E0,0E0,0E0,0E0],"parents":[2147483647,0,0,1,1,2,2],"right_children":[2,4,6,-1,-1,-1,-1],"split_conditions":[1.748E3,1.5685E3,1.9785E3,-1.1049153E-4,-3.7168306E-1,1.6542108E-1,-5.2660223E-2],"split_indices":[9,9,9,0,0,0,0],"split_type":[0,0,0,0,0,0,0],"sum_hessian":[3.174736E3,3.0726653E3,1.02071014E2,3.053432E3,1.9233315E1,5.6245415E1,4.5825596E1],"tree_param":{"num_deleted":"0","num_feature":"12","num_nodes":"7","size_leaf_vector":"0"}},{"base_weights":[-8.477772E-4,-5.372599E-3,4.2196405E-1,1.0022174E-3,-1.4271898E0,1.9110851E0,2.999708E-1],"categories":[],"categories_nodes":[],"categories_segments":[],"categories_sizes":[],"default_left":[true,true,true,false,false,false,false],"id":67,"left_children":[1,3,5,-1,-1,-1,-1],"loss_changes":[6.0616584E0,2.8413683E1,5.521262E0,0E0,0E0,0E0,0E0],"parents":[2147483647,0,0,1,1,2,2],"right_children":[2,4,6,-1,-1,-1,-1],"split_conditions":[2.1685E3,1.9785E3,2.1765E3,3.0066524E-4,-4.2815697E-1,5.733256E-1,8.999124E-2],"split_indices":[9,9,9,0,0,0,0],"split_type":[0,0,0,0,0,0,0],"sum_hessian":[3.1662358E3,3.1336873E3,3.254861E1,3.1206948E3,1.2992557E1,1.3541055E0,3.1194504E1],"tree_param":{"num_deleted":"0","num_feature":"12","num_nodes":"7","size_leaf_vector":"0"}},{"base_weights":[-6.9237454E-4,-9.756743E-3,2.1586135E-1,1.1044232E-2,-1.3117649E-1,1.6791269E0,-4.3546977E-3],"categories":[],"categories_nodes":[],"categories_segments":[],"categories_sizes":[],"default_left":[true,true,true,false,false,false,false],"id":68,"left_children":[1,3,5,-1,-1,-1,-1],"loss_changes":[6.2150555E0,7.6767616E0,4.0997322E1,0E0,0E0,0E0,0E0],"parents":[2147483647,0,0,1,1,2,2],"right_children":[2,4,6,-1,-1,-1,-1],"split_conditions":[1.448E3,5.5E0,1.5685E3,3.3132697E-3,-3.9352946E-2,5.037381E-1,-1.3064094E-3],"split_indices":[9,1,9,0,0,0,0],"split_type":[0,0,0,0,0,0,0],"sum_hessian":[3.1641526E3,3.037947E3,1.26205505E2,2.5943977E3,4.435492E2,1.5642326E1,1.1056318E2],"tree_param":{"num_deleted":"0","num_feature":"12","num_nodes":"7","size_leaf_vector":"0"}},{"base_weights":[-5.0460047E-4,-3.254955E-3,6.335029E-1,-1.8793414E-3,-1.7321402E0,9.441235E-1,-2.548122E-1],"categories":[],"categories_nodes":[],"categories_segments":[],"categories_sizes":[],"default_left":[true,true,true,false,false,false,false],"id":69,"left_children":[1,3,5,-1,-1,-1,-1],"loss_changes":[5.5197344E0,7.492108E0,4.0132265E0,0E0,0E0,0E0,0E0],"parents":[2147483647,0,0,1,1,2,2],"right_children":[2,4,6,-1,-1,-1,-1],"split_conditions":[1.05855E4,1.0041E4,3.09615E4,-5.6380243E-4,-5.1964206E-1,2.8323707E-1,-7.6443665E-2],"split_indices":[8,8,8,0,0,0,0],"split_type":[0,0,0,0,0,0,0],"sum_hessian":[3.163265E3,3.1505923E3,1.2672552E1,3.149088E3,1.5045321E0,9.342795E0,3.329756E0],"tree_param":{"num_deleted":"0","num_feature":"12","num_nodes":"7","size_leaf_vector":"0"}},{"base_weights":[-3.0282707E-4,-4.522285E-1,3.3279164E-3,-6.4890474E-1,1.402098E0,-7.056768E-1,6.041083E-3],"categories":[],"categories_nodes":[],"categories_segments":[],"categories_sizes":[],"default_left":[true,true,true,false,false,false,false],"id":70,"left_children":[1,3,5,-1,-1,-1,-1],"loss_changes":[5.191072E0,1.0105551E1,6.0417533E0,0E0,0E0,0E0,0E0],"parents":[2147483647,0,0,1,1,2,2],"right_children":[2,4,6,-1,-1,-1,-1],"split_conditions":[5E-1,6.5E0,2.15E1,-1.9467144E-1,4.206294E-1,-2.1170305E-1,1.812325E-3],"split_indices":[6,1,0,0,0,0,0],"split_type":[0,0,0,0,0,0,0],"sum_hessian":[3.161777E3,2.4214352E1,3.1375627E3,2.2480095E1,1.7342572E0,1.0973122E1,3.1265896E3],"tree_param":{"num_deleted":"0","num_feature":"12","num_nodes":"7","size_leaf_vector":"0"}},{"base_weights":[-3.4519046E-4,-2.5570331E-2,6.41905E-2,-9.929502E-2,2.3855917E-2,1.5020177E-1,-5.3649046E-2],"categories":[],"categories_nodes":[],"categories_segments":[],"categories_sizes":[],"default_left":[true,true,true,false,false,false,false],"id":71,"left_children":[1,3,5,-1,-1,-1,-1],"loss_changes":[5.1469374E0,8.285549E0,9.013588E0,0E0,0E0,0E0,0E0],"parents":[2147483647,0,0,1,1,2,2],"right_children":[2,4,6,-1,-1,-1,-1],"split_conditions":[4.85E1,3.95E1,1.15E1,-2.9788507E-2,7.1567753E-3,4.506053E-2,-1.6094714E-2],"split_indices":[10,0,2,0,0,0,0],"split_type":[0,0,0,0,0,0,0],"sum_hessian":[3.1596528E3,2.2721418E3,8.87511E2,9.115122E2,1.3606298E3,5.1288257E2,3.7462842E2],"tree_param":{"num_deleted":"0","num_feature":"12","num_nodes":"7","size_leaf_vector":"0"}},{"base_weights":[-3.4502518E-4,-6.553769E-2,2.4687914E-2,-2.0129178E-2,-3.179061E-1,1.9886993E-1,-2.9786153E-2],"categories":[],"categories_nodes":[],"categories_segments":[],"categories_sizes":[],"default_left":[true,true,true,false,false,false,false],"id":72,"left_children":[1,3,5,-1,-1,-1,-1],"loss_changes":[5.158852E0,1.0044297E1,2.1678295E1,0E0,0E0,0E0,0E0],"parents":[2147483647,0,0,1,1,2,2],"right_children":[2,4,6,-1,-1,-1,-1],"split_conditions":[3.5E0,1.25E1,4.5E0,-6.038754E-3,-9.5371835E-2,5.9660982E-2,-8.935846E-3],"split_indices":[4,2,4,0,0,0,0],"split_type":[0,0,0,0,0,0,0],"sum_hessian":[3.1591394E3,8.760489E2,2.2830906E3,7.4337384E2,1.326751E2,5.432825E2,1.7398081E3],"tree_param":{"num_deleted":"0","num_feature":"12","num_nodes":"7","size_leaf_vector":"0"}},{"base_weights":[-2.9478615E-4,-3.440089E-2,4.912886E-2,2.4944885E-2,-2.2177577E-1,5.582695E-2,-7.348107E-1],"categories":[],"categories_nodes":[],"categories_segments":[],"categories_sizes":[],"default_left":[true,true,true,false,false,false,false],"id":73,"left_children":[1,3,5,-1,-1,-1,-1],"loss_changes":[5.319134E0,2.0767458E1,6.806511E0,0E0,0E0,0E0,0E0],"parents":[2147483647,0,0,1,1,2,2],"right_children":[2,4,6,-1,-1,-1,-1],"split_conditions":[9.5E0,4.5E0,8.6E1,7.4834656E-3,-6.653273E-2,1.6748086E-2,-2.2044322E-1],"split_indices":[4,4,10,0,0,0,0],"split_type":[0,0,0,0,0,0,0],"sum_hessian":[3.1535396E3,1.866095E3,1.2874447E3,1.417886E3,4.4820905E2,1.2774587E3,9.985997E0],"tree_param":{"num_deleted":"0","num_feature":"12","num_nodes":"7","size_leaf_vector":"0"}},{"base_weights":[-4.852762E-4,-5.5141184E-3,3.2614976E-1,-3.2146604E-4,-1.4053531E0,-7.8502655E-1,5.5303186E-1],"categories":[],"categories_nodes":[],"categories_segments":[],"categories_sizes":[],"default_left":[true,true,true,false,false,false,false],"id":74,"left_children":[1,3,5,-1,-1,-1,-1],"loss_changes":[5.1662817E0,2.2514238E1,1.2456808E1,0E0,0E0,0E0,0E0],"parents":[2147483647,0,0,1,1,2,2],"right_children":[2,4,6,-1,-1,-1,-1],"split_conditions":[5.119E3,4.9735E3,5E-1,-9.643981E-5,-4.2160594E-1,-2.3550798E-1,1.6590956E-1],"split_indices":[8,8,3,0,0,0,0],"split_type":[0,0,0,0,0,0,0],"sum_hessian":[3.1430986E3,3.0964097E3,4.6688915E1,3.0859626E3,1.0447038E1,7.499474E0,3.9189438E1],"tree_param":{"num_deleted":"0","num_feature":"12","num_nodes":"7","size_leaf_vector":"0"}},{"base_weights":[-5.122827E-4,1.0807315E-3,-9.034185E-1,-4.303314E-3,2.6819828E-1,-2.3911133E-1,-1.0348463E0],"categories":[],"categories_nodes":[],"categories_segments":[],"categories_sizes":[],"default_left":[true,true,true,false,false,false,false],"id":75,"left_children":[1,3,5,-1,-1,-1,-1],"loss_changes":[4.5162168E0,4.5093484E0,2.3537064E-1,0E0,0E0,0E0,0E0],"parents":[2147483647,0,0,1,1,2,2],"right_children":[2,4,6,-1,-1,-1,-1],"split_conditions":[8.45E1,4.6685E3,1.5E0,-1.2909942E-3,8.045949E-2,-7.17334E-2,-3.104539E-1],"split_indices":[0,8,5,0,0,0,0],"split_type":[0,0,0,0,0,0,0],"sum_hessian":[3.1381973E3,3.1336672E3,4.5299845E0,3.0727173E3,6.0950073E1,1.2138524E0,3.316132E0],"tree_param":{"num_deleted":"0","num_feature":"12","num_nodes":"7","size_leaf_vector":"0"}},{"base_weights":[-4.500908E-4,-6.474215E-3,2.3030096E-1,-2.9076752E-3,-1.4256718E0,1.1161704E0,4.3560315E-2],"categories":[],"categories_nodes":[],"categories_segments":[],"categories_sizes":[],"default_left":[true,true,true,false,false,false,false],"id":76,"left_children":[1,3,5,-1,-1,-1,-1],"loss_changes":[4.3617845E0,1.5473814E1,1.3158045E1,0E0,0E0,0E0,0E0],"parents":[2147483647,0,0,1,1,2,2],"right_children":[2,4,6,-1,-1,-1,-1],"split_conditions":[1.8815E3,1.862E3,1.8945E3,-8.723026E-4,-4.2770156E-1,3.3485115E-1,1.3068095E-2],"split_indices":[9,9,9,0,0,0,0],"split_type":[0,0,0,0,0,0,0],"sum_hessian":[3.1357373E3,3.0569038E3,7.8833405E1,3.0502405E3,6.663412E0,1.2858327E1,6.597508E1],"tree_param":{"num_deleted":"0","num_feature":"12","num_nodes":"7","size_leaf_vector":"0"}},{"base_weights":[-2.55659E-4,8.437152E-2,-1.5022361E-2,-3.324373E-1,1.3719308E-1,5.6155124E-3,-4.160789E-1],"categories":[],"categories_nodes":[],"categories_segments":[],"categories_sizes":[],"default_left":[true,true,true,false,false,false,false],"id":77,"left_children":[1,3,5,-1,-1,-1,-1],"loss_changes":[3.9153595E0,1.0293881E1,2.2082214E1,0E0,0E0,0E0,0E0],"parents":[2147483647,0,0,1,1,2,2],"right_children":[2,4,6,-1,-1,-1,-1],"split_conditions":[5E-1,2.5E0,3.5E0,-9.97312E-2,4.1157927E-2,1.6846538E-3,-1.24823675E-1],"split_indices":[5,4,3,0,0,0,0],"split_type":[0,0,0,0,0,0,0],"sum_hessian":[3.1311147E3,4.6448166E2,2.666633E3,5.1647064E1,4.128346E2,2.537065E3,1.2956822E2],"tree_param":{"num_deleted":"0","num_feature":"12","num_nodes":"7","size_leaf_vector":"0"}},{"base_weights":[-6.1606575E-4,-5.239983E-3,3.2172078E-1,2.6511233E-3,-2.5541294E-1,1.0083807E-1,7.54064E-1],"categories":[],"categories_nodes":[],"categories_segments":[],"categories_sizes":[],"default_left":[true,true,true,false,false,false,false],"id":78,"left_children":[1,3,5,-1,-1,-1,-1],"loss_changes":[4.66263E0,6.088823E0,4.148858E0,0E0,0E0,0E0,0E0],"parents":[2147483647,0,0,1,1,2,2],"right_children":[2,4,6,-1,-1,-1,-1],"split_conditions":[5.5E0,6.55E1,5E-1,7.95337E-4,-7.662389E-2,3.0251423E-2,2.2621922E-1],"split_indices":[3,0,7,0,0,0,0],"split_type":[0,0,0,0,0,0,0],"sum_hessian":[3.1261873E3,3.0829463E3,4.3241077E1,2.9896348E3,9.331147E1,2.943571E1,1.3805367E1],"tree_param":{"num_deleted":"0","num_feature":"12","num_nodes":"7","size_leaf_vector":"0"}},{"base_weights":[-4.651458E-4,-3.8351214E-3,3.543178E-1,1.0075486E-3,-9.7127295E-1,1.134445E0,5.975072E-2],"categories":[],"categories_nodes":[],"categories_segments":[],"categories_sizes":[],"default_left":[true,true,true,false,false,false,false],"id":79,"left_children":[1,3,5,-1,-1,-1,-1],"loss_changes":[3.7410166E0,1.4521532E1,6.6978455E0,0E0,0E0,0E0,0E0],"parents":[2147483647,0,0,1,1,2,2],"right_children":[2,4,6,-1,-1,-1,-1],"split_conditions":[2.19E3,1.9785E3,2.2625E3,3.022646E-4,-2.913819E-1,3.403335E-1,1.7925218E-2],"split_indices":[9,9,9,0,0,0,0],"split_type":[0,0,0,0,0,0,0],"sum_hessian":[3.1268242E3,3.0983828E3,2.8441406E1,3.0839446E3,1.4438236E1,7.014111E0,2.1427296E1],"tree_param":{"num_deleted":"0","num_feature":"12","num_nodes":"7","size_leaf_vector":"0"}},{"base_weights":[-4.1377018E-4,-2.4747261E-1,4.3332116E-3,3.6480364E-1,-4.4332862E-1,5.516938E-1,1.5191645E-3],"categories":[],"categories_nodes":[],"categories_segments":[],"categories_sizes":[],"default_left":[true,true,true,false,false,false,false],"id":80,"left_children":[1,3,5,-1,-1,-1,-1],"loss_changes":[3.667783E0,7.2317624E0,4.725636E0,0E0,0E0,0E0,0E0],"parents":[2147483647,0,0,1,1,2,2],"right_children":[2,4,6,-1,-1,-1,-1],"split_conditions":[5E-1,3.5E0,2.5E0,1.09441094E-1,-1.3299859E-1,1.6550815E-1,4.5574937E-4],"split_indices":[11,4,11,0,0,0,0],"split_type":[0,0,0,0,0,0,0],"sum_hessian":[3.125502E3,5.7957256E1,3.0675447E3,1.3837252E1,4.4120003E1,1.46923065E1,3.0528523E3],"tree_param":{"num_deleted":"0","num_feature":"12","num_nodes":"7","size_leaf_vector":"0"}},{"base_weights":[-2.8897743E-4,-5.9772944E-3,1.912777E-1,1.9028236E-4,-1.1559391E0,-5.0002706E-1,4.0514237E-1],"categories":[],"categories_nodes":[],"categories_segments":[],"categories_sizes":[],"default_left":[true,true,true,false,false,false,false],"id":81,"left_children":[1,3,5,-1,-1,-1,-1],"loss_changes":[3.4082675E0,2.1543549E1,1.3537628E1,0E0,0E0,0E0,0E0],"parents":[2147483647,0,0,1,1,2,2],"right_children":[2,4,6,-1,-1,-1,-1],"split_conditions":[1.748E3,1.5685E3,5E-1,5.7084708E-5,-3.4678173E-1,-1.5000813E-1,1.21542715E-1],"split_indices":[9,9,5,0,0,0,0],"split_type":[0,0,0,0,0,0,0],"sum_hessian":[3.1256855E3,3.03649E3,8.919572E1,3.0212856E3,1.5204191E1,2.075816E1,6.843756E1],"tree_param":{"num_deleted":"0","num_feature":"12","num_nodes":"7","size_leaf_vector":"0"}},{"base_weights":[-4.7317153E-4,-3.668798E-1,2.3420833E-3,-5.210236E-1,6.33946E-1,4.5400375E-5,5.2379704E-1],"categories":[],"categories_nodes":[],"categories_segments":[],"categories_sizes":[],"default_left":[true,true,true,false,false,false,false],"id":82,"left_children":[1,3,5,-1,-1,-1,-1],"loss_changes":[3.2196205E0,4.001757E0,3.7096932E0,0E0,0E0,0E0,0E0],"parents":[2147483647,0,0,1,1,2,2],"right_children":[2,4,6,-1,-1,-1,-1],"split_conditions":[3.5E0,4.5E0,2.3845E3,-1.5630707E-1,1.901838E-1,1.3620113E-5,1.5713912E-1],"split_indices":[2,1,9,0,0,0,0],"split_type":[0,0,0,0,0,0,0],"sum_hessian":[3.1193818E3,2.2798733E1,3.096583E3,2.0171408E1,2.6273253E0,3.084E3,1.2583006E1],"tree_param":{"num_deleted":"0","num_feature":"12","num_nodes":"7","size_leaf_vector":"0"}},{"base_weights":[-3.2207379E-4,1.3057525E-2,-7.819115E-2,2.0068539E-4,2.171553E-1,3.9098457E-1,-1.2997961E-1],"categories":[],"categories_nodes":[],"categories_segments":[],"categories_sizes":[],"default_left":[true,true,true,false,false,false,false],"id":83,"left_children":[1,3,5,-1,-1,-1,-1],"loss_changes":[3.249419E0,6.98408E0,1.11625595E1,0E0,0E0,0E0,0E0],"parents":[2147483647,0,0,1,1,2,2],"right_children":[2,4,6,-1,-1,-1,-1],"split_conditions":[5.5E0,4.5E0,3.15E1,6.020562E-5,6.514659E-2,1.1729538E-1,-3.8993884E-2],"split_indices":[1,1,0,0,0,0,0],"split_type":[0,0,0,0,0,0,0],"sum_hessian":[3.1168923E3,2.6605793E3,4.5631302E2,2.5038538E3,1.5672562E2,4.471047E1,4.1160254E2],"tree_param":{"num_deleted":"0","num_feature":"12","num_nodes":"7","size_leaf_vector":"0"}},{"base_weights":[-2.5779888E-4,-9.677306E-2,9.874287E-3,-2.4091591E-1,1.7559443E-1,4.9714665E-3,3.959155E-1],"categories":[],"categories_nodes":[],"categories_segments":[],"categories_sizes":[],"default_left":[true,true,true,false,false,false,false],"id":84,"left_children":[1,3,5,-1,-1,-1,-1],"loss_changes":[3.0492613E0,1.1672754E1,5.33911E0,0E0,0E0,0E0,0E0],"parents":[2147483647,0,0,1,1,2,2],"right_children":[2,4,6,-1,-1,-1,-1],"split_conditions":[5E-1,4.75E1,5.119E3,-7.2274774E-2,5.267833E-2,1.49144E-3,1.1877466E-1],"split_indices":[3,10,8,0,0,0,0],"split_type":[0,0,0,0,0,0,0],"sum_hessian":[3.1161926E3,2.9524307E2,2.8209495E3,1.9314304E2,1.02100044E2,2.7865723E3,3.4377293E1],"tree_param":{"num_deleted":"0","num_feature":"12","num_nodes":"7","size_leaf_vector":"0"}},{"base_weights":[-2.435731E-4,5.6520645E-3,-1.7542061E-1,-4.920557E-3,1.5736405E0,-1.2041814E0,1.0838535E-1],"categories":[],"categories_nodes":[],"categories_segments":[],"categories_sizes":[],"default_left":[true,true,true,false,false,false,false],"id":85,"left_children":[1,3,5,-1,-1,-1,-1],"loss_changes":[3.2119417E0,4.988646E1,2.9695206E1,0E0,0E0,0E0,0E0],"parents":[2147483647,0,0,1,1,2,2],"right_children":[2,4,6,-1,-1,-1,-1],"split_conditions":[3.12E3,3.048E3,4.2435E3,-1.4761672E-3,4.7209215E-1,-3.6125445E-1,3.2515604E-2],"split_indices":[8,8,8,0,0,0,0],"split_type":[0,0,0,0,0,0,0],"sum_hessian":[3.1080352E3,3.0077751E3,1.0025987E2,2.9886204E3,1.9154789E1,2.0977198E1,7.928267E1],"tree_param":{"num_deleted":"0","num_feature":"12","num_nodes":"7","size_leaf_vector":"0"}},{"base_weights":[-2.6599984E-4,8.252522E-3,-1.8022887E-1,7.522495E-4,1.8531448E-1,-1.2598205E0,8.339064E-2],"categories":[],"categories_nodes":[],"categories_segments":[],"categories_sizes":[],"default_left":[true,true,true,false,false,false,false],"id":86,"left_children":[1,3,5,-1,-1,-1,-1],"loss_changes":[4.7554755E0,3.933258E0,4.0005653E1,0E0,0E0,0E0,0E0],"parents":[2147483647,0,0,1,1,2,2],"right_children":[2,4,6,-1,-1,-1,-1],"split_conditions":[5.7E1,1.45E1,3.048E3,2.2567486E-4,5.5594344E-2,-3.7794617E-1,2.5017193E-2],"split_indices":[8,2,8,0,0,0,0],"split_type":[0,0,0,0,0,0,0],"sum_hessian":[3.1000654E3,2.9608672E3,1.3919817E2,2.8415063E3,1.1936081E2,2.6577469E1,1.126207E2],"tree_param":{"num_deleted":"0","num_feature":"12","num_nodes":"7","size_leaf_vector":"0"}},{"base_weights":[-6.366375E-4,7.3989234E-3,-1.22891515E-1,-3.5710766E-3,2.9616717E-1,-3.820142E-2,-1.0632247E0],"categories":[],"categories_nodes":[],"categories_segments":[],"categories_sizes":[],"default_left":[true,true,true,false,false,false,false],"id":87,"left_children":[1,3,5,-1,-1,-1,-1],"loss_changes":[3.040267E0,9.200261E0,1.5159489E1,0E0,0E0,0E0,0E0],"parents":[2147483647,0,0,1,1,2,2],"right_children":[2,4,6,-1,-1,-1,-1],"split_conditions":[1.35E1,1.25E1,1.15E1,-1.0713231E-3,8.8850155E-2,-1.1460427E-2,-3.189674E-1],"split_indices":[4,4,2,0,0,0,0],"split_type":[0,0,0,0,0,0,0],"sum_hessian":[3.092851E3,2.9029834E3,1.8986763E2,2.79769E3,1.0529363E2,1.7513492E2,1.4732713E1],"tree_param":{"num_deleted":"0","num_feature":"12","num_nodes":"7","size_leaf_vector":"0"}},{"base_weights":[-5.751059E-4,-1.8285233E-1,4.8710653E-3,-2.442993E-1,7.5142473E-1,1.2068449E-2,-1.5518475E-1],"categories":[],"categories_nodes":[],"categories_segments":[],"categories_sizes":[],"default_left":[true,true,true,false,false,false,false],"id":88,"left_children":[1,3,5,-1,-1,-1,-1],"loss_changes":[3.0719287E0,5.337474E0,3.4633577E0,0E0,0E0,0E0,0E0],"parents":[2147483647,0,0,1,1,2,2],"right_children":[2,4,6,-1,-1,-1,-1],"split_conditions":[2.55E1,1.35E1,5.7E1,-7.328979E-2,2.2542743E-1,3.6205347E-3,-4.6555426E-2],"split_indices":[0,4,8,0,0,0,0],"split_type":[0,0,0,0,0,0,0],"sum_hessian":[3.0925813E3,8.877594E1,3.0038054E3,8.399044E1,4.785497E0,2.875428E3,1.2837753E2],"tree_param":{"num_deleted":"0","num_feature":"12","num_nodes":"7","size_leaf_vector":"0"}},{"base_weights":[-4.5273194E-4,9.6891366E-4,-6.445049E-1,-1.5866318E-1,6.7433543E-3,-2.6523456E-1,-1.4055703E0],"categories":[],"categories_nodes":[],"categories_segments":[],"categories_sizes":[],"default_left":[true,true,true,false,false,false,false],"id":89,"left_children":[1,3,5,-1,-1,-1,-1],"loss_changes":[2.832073E0,2.846247E0,1.5936108E0,0E0,0E0,0E0,0E0],"parents":[2147483647,0,0,1,1,2,2],"right_children":[2,4,6,-1,-1,-1,-1],"split_conditions":[8.15E1,5E-1,5.5E0,-4.7598958E-2,2.0230063E-3,-7.957037E-2,-4.216711E-1],"split_indices":[0,4,1,0,0,0,0],"split_type":[0,0,0,0,0,0,0],"sum_hessian":[3.0914043E3,3.0855918E3,5.812471E0,1.06795525E2,2.9787964E3,4.7792683E0,1.0332029E0],"tree_param":{"num_deleted":"0","num_feature":"12","num_nodes":"7","size_leaf_vector":"0"}},{"base_weights":[-5.1849696E-4,-3.4264603E-1,2.0537565E-3,-5.227662E-1,1.0787308E0,-6.071796E-1,3.850771E-3],"categories":[],"categories_nodes":[],"categories_segments":[],"categories_sizes":[],"default_left":[true,true,true,false,false,false,false],"id":90,"left_children":[1,3,5,-1,-1,-1,-1],"loss_changes":[2.7214856E0,6.4720297E0,3.3629227E0,0E0,0E0,0E0,0E0],"parents":[2147483647,0,0,1,1,2,2],"right_children":[2,4,6,-1,-1,-1,-1],"split_conditions":[5E-1,6.5E0,2.15E1,-1.5682986E-1,3.2361925E-1,-1.8215388E-1,1.1552314E-3],"split_indices":[6,1,0,0,0,0,0],"split_type":[0,0,0,0,0,0,0],"sum_hessian":[3.0906614E3,2.2076866E1,3.0685845E3,2.015499E1,1.9218751E0,8.033821E0,3.0605505E3],"tree_param":{"num_deleted":"0","num_feature":"12","num_nodes":"7","size_leaf_vector":"0"}},{"base_weights":[-4.4785903E-4,-1.565394E-1,5.0774193E-3,5.8288515E-2,-3.683148E-1,3.4265113E-1,1.6775817E-3],"categories":[],"categories_nodes":[],"categories_segments":[],"categories_sizes":[],"default_left":[true,true,true,false,false,false,false],"id":91,"left_children":[1,3,5,-1,-1,-1,-1],"loss_changes":[2.665849E0,4.8291483E0,3.4257853E0,0E0,0E0,0E0,0E0],"parents":[2147483647,0,0,1,1,2,2],"right_children":[2,4,6,-1,-1,-1,-1],"split_conditions":[8.5E0,1.15E1,1.15E1,1.7486556E-2,-1.1049444E-1,1.0279534E-1,5.0327455E-4],"split_indices":[11,2,11,0,0,0,0],"split_type":[0,0,0,0,0,0,0],"sum_hessian":[3.0890999E3,1.0467426E2,2.9844255E3,5.232243E1,5.2351837E1,2.8762674E1,2.9556628E3],"tree_param":{"num_deleted":"0","num_feature":"12","num_nodes":"7","size_leaf_vector":"0"}},{"base_weights":[-3.2260513E-4,1.6823232E-3,-3.7751767E-1,-2.1658004E-3,3.5336044E-1,3.441703E-2,-6.6473424E-1],"categories":[],"categories_nodes":[],"categories_segments":[],"categories_sizes":[],"default_left":[true,true,true,false,false,false,false],"id":92,"left_children":[1,3,5,-1,-1,-1,-1],"loss_changes":[2.3383498E0,4.1633134E0,1.957129E0,0E0,0E0,0E0,0E0],"parents":[2147483647,0,0,1,1,2,2],"right_children":[2,4,6,-1,-1,-1,-1],"split_conditions":[9.05E1,7.75E1,4.25E1,-6.4974016E-4,1.06008135E-1,1.032511E-2,-1.9942029E-1],"split_indices":[10,10,0,0,0,0,0],"split_type":[0,0,0,0,0,0,0],"sum_hessian":[3.0901965E3,3.0748481E3,1.534839E1,3.0425498E3,3.229827E1,6.666814E0,8.681577E0],"tree_param":{"num_deleted":"0","num_feature":"12","num_nodes":"7","size_leaf_vector":"0"}},{"base_weights":[-2.8173474E-4,5.1129395E-3,-1.4166191E-1,1.4782993E-2,-1.4543158E-1,-3.238514E-1,4.4049954E-1],"categories":[],"categories_nodes":[],"categories_segments":[],"categories_sizes":[],"default_left":[true,true,true,false,false,false,false],"id":93,"left_children":[1,3,5,-1,-1,-1,-1],"loss_changes":[2.358292E0,4.3380756E0,1.2196455E1,0E0,0E0,0E0,0E0],"parents":[2147483647,0,0,1,1,2,2],"right_children":[2,4,6,-1,-1,-1,-1],"split_conditions":[6.55E1,1.35E1,1.15E1,4.434898E-3,-4.3629475E-2,-9.715543E-2,1.3214988E-1],"split_indices":[10,4,4,0,0,0,0],"split_type":[0,0,0,0,0,0,0],"sum_hessian":[3.0900813E3,2.9774346E3,1.1264679E2,2.7985732E3,1.7886131E2,8.613442E1,2.6512365E1],"tree_param":{"num_deleted":"0","num_feature":"12","num_nodes":"7","size_leaf_vector":"0"}},{"base_weights":[-2.6522175E-4,-1.7680906E-1,4.082491E-3,-5.9225196E-1,2.6524076E-2,-2.250043E-2,4.1512687E-2],"categories":[],"categories_nodes":[],"categories_segments":[],"categories_sizes":[],"default_left":[true,true,true,false,false,false,false],"id":94,"left_children":[1,3,5,-1,-1,-1,-1],"loss_changes":[2.3723493E0,6.2909026E0,3.002396E0,0E0,0E0,0E0,0E0],"parents":[2147483647,0,0,1,1,2,2],"right_children":[2,4,6,-1,-1,-1,-1],"split_conditions":[1.95E1,9.5E0,4.45E1,-1.7767559E-1,7.957223E-3,-6.750129E-3,1.2453807E-2],"split_indices":[10,2,0,0,0,0,0],"split_type":[0,0,0,0,0,0,0],"sum_hessian":[3.0888193E3,7.328612E1,3.0155332E3,2.3453682E1,4.9832436E1,1.7634968E3,1.2520365E3],"tree_param":{"num_deleted":"0","num_feature":"12","num_nodes":"7","size_leaf_vector":"0"}},{"base_weights":[-3.2635423E-4,-4.502902E-2,1.6789656E-2,-7.1033336E-2,1.6754104E-1,1.2607807E-1,-1.7975364E-2],"categories":[],"categories_nodes":[],"categories_segments":[],"categories_sizes":[],"default_left":[true,true,true,false,false,false,false],"id":95,"left_children":[1,3,5,-1,-1,-1,-1],"loss_changes":[2.3623617E0,4.7373133E0,8.485148E0,0E0,0E0,0E0,0E0],"parents":[2147483647,0,0,1,1,2,2],"right_children":[2,4,6,-1,-1,-1,-1],"split_conditions":[3.5E0,4.5E0,4.5E0,-2.1310002E-2,5.0262313E-2,3.7823424E-2,-5.392609E-3],"split_indices":[4,5,4,0,0,0,0],"split_type":[0,0,0,0,0,0,0],"sum_hessian":[3.0855364E3,8.538545E2,2.231682E3,7.6137866E2,9.247584E1,5.3794727E2,1.6937345E3],"tree_param":{"num_deleted":"0","num_feature":"12","num_nodes":"7","size_leaf_vector":"0"}},{"base_weights":[-2.4435372E-4,-6.4603135E-2,1.4367929E-2,-1.5159783E-1,3.9019957E-2,1.3779119E-1,-6.029304E-3],"categories":[],"categories_nodes":[],"categories_segments":[],"categories_sizes":[],"default_left":[true,true,true,false,false,false,false],"id":96,"left_children":[1,3,5,-1,-1,-1,-1],"loss_changes":[2.896937E0,5.144128E0,6.320926E0,0E0,0E0,0E0,0E0],"parents":[2147483647,0,0,1,1,2,2],"right_children":[2,4,6,-1,-1,-1,-1],"split_conditions":[5E-1,4.5E0,2.5E0,-4.547935E-2,1.1705987E-2,4.1337356E-2,-1.8087913E-3],"split_indices":[7,5,5,0,0,0,0],"split_type":[0,0,0,0,0,0,0],"sum_hessian":[3.078456E3,5.6898413E2,2.509472E3,3.0905783E2,2.599263E2,3.550877E2,2.1543843E3],"tree_param":{"num_deleted":"0","num_feature":"12","num_nodes":"7","size_leaf_vector":"0"}},{"base_weights":[-3.0168577E-4,-2.467564E-2,3.440382E-2,-2.652382E-3,-3.203067E-1,4.1180745E-2,-4.823109E-1],"categories":[],"categories_nodes":[],"categories_segments":[],"categories_sizes":[],"default_left":[true,true,true,false,false,false,false],"id":97,"left_children":[1,3,5,-1,-1,-1,-1],"loss_changes":[2.604728E0,1.1776018E1,4.4683504E0,0E0,0E0,0E0,0E0],"parents":[2147483647,0,0,1,1,2,2],"right_children":[2,4,6,-1,-1,-1,-1],"split_conditions":[9.5E0,7.5E0,1.9785E3,-7.957146E-4,-9.609201E-2,1.2354224E-2,-1.4469327E-1],"split_indices":[4,4,9,0,0,0,0],"split_type":[0,0,0,0,0,0,0],"sum_hessian":[3.0771975E3,1.8078318E3,1.2693658E3,1.6834323E3,1.24399574E2,1.2538414E3,1.5524348E1],"tree_param":{"num_deleted":"0","num_feature":"12","num_nodes":"7","size_leaf_vector":"0"}},{"base_weights":[-4.0748747E-4,-6.478738E-3,1.5657923E-1,-4.3738107E-3,-1.1387111E0,1.0862725E0,-1.7768811E-2],"categories":[],"categories_nodes":[],"categories_segments":[],"categories_sizes":[],"default_left":[true,true,true,false,false,false,false],"id":98,"left_children":[1,3,5,-1,-1,-1,-1],"loss_changes":[2.9299576E0,7.0485144E0,1.8572275E1,0E0,0E0,0E0,0E0],"parents":[2147483647,0,0,1,1,2,2],"right_children":[2,4,6,-1,-1,-1,-1],"split_conditions":[1.448E3,7.315E2,1.5685E3,-1.3121433E-3,-3.4161335E-1,3.2588175E-1,-5.3306436E-3],"split_indices":[9,9,9,0,0,0,0],"split_type":[0,0,0,0,0,0,0],"sum_hessian":[3.0720518E3,2.9585908E3,1.134608E2,2.9541028E3,4.488094E0,1.709152E1,9.6369286E1],"tree_param":{"num_deleted":"0","num_feature":"12","num_nodes":"7","size_leaf_vector":"0"}},{"base_weights":[-3.700572E-4,-3.8787676E-3,2.3370892E-1,7.5918976E-3,-9.147246E-2,-5.100016E-2,4.997517E-1],"categories":[],"categories_nodes":[],"categories_segments":[],"categories_sizes":[],"default_left":[true,true,true,false,false,false,false],"id":99,"left_children":[1,3,5,-1,-1,-1,-1],"loss_changes":[2.5236745E0,3.0423388E0,3.4626496E0,0E0,0E0,0E0,0E0],"parents":[2147483647,0,0,1,1,2,2],"right_children":[2,4,6,-1,-1,-1,-1],"split_conditions":[5.5E0,3.5E0,5.65E1,2.2775694E-3,-2.744174E-2,-1.53000485E-2,1.4992552E-1],"split_indices":[3,3,0,0,0,0,0],"split_type":[0,0,0,0,0,0,0],"sum_hessian":[3.0706191E3,3.026241E3,4.4378197E1,2.6766401E3,3.4960095E2,2.1827509E1,2.2550688E1],"tree_param":{"num_deleted":"0","num_feature":"12","num_nodes":"7","size_leaf_vector":"0"}}]},"name":"gbtree"},"learner_model_param":{"base_score":"5E-1","num_class":"0","num_feature":"12"},"objective":{"name":"binary:logistic","reg_loss_param":{"scale_pos_weight":"1"}}},"version":[1,3,0]}